digraph Tree {
node [shape=box, fontname="helvetica"] ;
edge [fontname="helvetica"] ;
0 [label="x[63] <= 0.5\ngini = 0.647\nsamples = 360\nvalue = [33, 46, 180, 101]"] ;
1 [label="x[62] <= 0.5\ngini = 0.608\nsamples = 315\nvalue = [24, 38, 176, 77]"] ;
0 -> 1 [labeldistance=2.5, labelangle=45, headlabel="True"] ;
2 [label="x[306] <= -0.011\ngini = 0.555\nsamples = 284\nvalue = [17, 30, 176, 61]"] ;
1 -> 2 ;
3 [label="gini = 0.0\nsamples = 6\nvalue = [0, 6, 0, 0]"] ;
2 -> 3 ;
4 [label="x[175] <= 0.002\ngini = 0.54\nsamples = 278\nvalue = [17, 24, 176, 61]"] ;
2 -> 4 ;
5 [label="x[307] <= -0.014\ngini = 0.529\nsamples = 272\nvalue = [17, 24, 176, 55]"] ;
4 -> 5 ;
6 [label="x[174] <= 0.014\ngini = 0.375\nsamples = 8\nvalue = [0, 6, 2, 0]"] ;
5 -> 6 ;
7 [label="x[186] <= -0.131\ngini = 0.245\nsamples = 7\nvalue = [0, 6, 1, 0]"] ;
6 -> 7 ;
8 [label="gini = 0.0\nsamples = 1\nvalue = [0, 0, 1, 0]"] ;
7 -> 8 ;
9 [label="gini = 0.0\nsamples = 6\nvalue = [0, 6, 0, 0]"] ;
7 -> 9 ;
10 [label="gini = 0.0\nsamples = 1\nvalue = [0, 0, 1, 0]"] ;
6 -> 10 ;
11 [label="x[287] <= 0.023\ngini = 0.513\nsamples = 264\nvalue = [17, 18, 174, 55]"] ;
5 -> 11 ;
12 [label="x[296] <= -0.024\ngini = 0.504\nsamples = 261\nvalue = [14, 18, 174, 55]"] ;
11 -> 12 ;
13 [label="gini = 0.0\nsamples = 3\nvalue = [0, 3, 0, 0]"] ;
12 -> 13 ;
14 [label="x[61] <= 0.5\ngini = 0.493\nsamples = 258\nvalue = [14, 15, 174, 55]"] ;
12 -> 14 ;
15 [label="x[291] <= 0.0\ngini = 0.475\nsamples = 252\nvalue = [12, 14, 174, 52]"] ;
14 -> 15 ;
16 [label="x[173] <= 0.008\ngini = 0.467\nsamples = 249\nvalue = [12, 14, 174, 49]"] ;
15 -> 16 ;
17 [label="x[158] <= 0.003\ngini = 0.459\nsamples = 246\nvalue = [12, 14, 174, 46]"] ;
16 -> 17 ;
18 [label="x[51] <= 0.5\ngini = 0.45\nsamples = 243\nvalue = [12, 14, 174, 43]"] ;
17 -> 18 ;
19 [label="x[156] <= -0.005\ngini = 0.425\nsamples = 219\nvalue = [12, 13, 162, 32]"] ;
18 -> 19 ;
20 [label="x[156] <= -0.065\ngini = 0.32\nsamples = 5\nvalue = [0, 0, 1, 4]"] ;
19 -> 20 ;
21 [label="gini = 0.0\nsamples = 1\nvalue = [0, 0, 1, 0]"] ;
20 -> 21 ;
22 [label="gini = 0.0\nsamples = 4\nvalue = [0, 0, 0, 4]"] ;
20 -> 22 ;
23 [label="x[185] <= -0.113\ngini = 0.41\nsamples = 214\nvalue = [12, 13, 161, 28]"] ;
19 -> 23 ;
24 [label="x[185] <= -0.12\ngini = 0.667\nsamples = 9\nvalue = [3, 3, 3, 0]"] ;
23 -> 24 ;
25 [label="x[190] <= -0.118\ngini = 0.375\nsamples = 4\nvalue = [0, 1, 3, 0]"] ;
24 -> 25 ;
26 [label="gini = 0.0\nsamples = 1\nvalue = [0, 1, 0, 0]"] ;
25 -> 26 ;
27 [label="gini = 0.0\nsamples = 3\nvalue = [0, 0, 3, 0]"] ;
25 -> 27 ;
28 [label="x[185] <= -0.119\ngini = 0.48\nsamples = 5\nvalue = [3, 2, 0, 0]"] ;
24 -> 28 ;
29 [label="gini = 0.0\nsamples = 2\nvalue = [2, 0, 0, 0]"] ;
28 -> 29 ;
30 [label="x[159] <= -0.056\ngini = 0.444\nsamples = 3\nvalue = [1, 2, 0, 0]"] ;
28 -> 30 ;
31 [label="gini = 0.0\nsamples = 1\nvalue = [1, 0, 0, 0]"] ;
30 -> 31 ;
32 [label="gini = 0.0\nsamples = 2\nvalue = [0, 2, 0, 0]"] ;
30 -> 32 ;
33 [label="x[75] <= 0.5\ngini = 0.383\nsamples = 205\nvalue = [9, 10, 158, 28]"] ;
23 -> 33 ;
34 [label="x[307] <= 0.001\ngini = 0.339\nsamples = 187\nvalue = [6, 9, 150, 22]"] ;
33 -> 34 ;
35 [label="x[294] <= -0.029\ngini = 0.32\nsamples = 184\nvalue = [5, 9, 150, 20]"] ;
34 -> 35 ;
36 [label="gini = 0.0\nsamples = 2\nvalue = [0, 2, 0, 0]"] ;
35 -> 36 ;
37 [label="x[157] <= 0.0\ngini = 0.306\nsamples = 182\nvalue = [5, 7, 150, 20]"] ;
35 -> 37 ;
38 [label="x[315] <= 0.04\ngini = 0.293\nsamples = 180\nvalue = [5, 7, 150, 18]"] ;
37 -> 38 ;
39 [label="x[53] <= 0.5\ngini = 0.279\nsamples = 178\nvalue = [4, 7, 150, 17]"] ;
38 -> 39 ;
40 [label="x[298] <= 0.027\ngini = 0.249\nsamples = 167\nvalue = [4, 6, 144, 13]"] ;
39 -> 40 ;
41 [label="x[276] <= 0.018\ngini = 0.24\nsamples = 166\nvalue = [3, 6, 144, 13]"] ;
40 -> 41 ;
42 [label="x[176] <= -0.145\ngini = 0.231\nsamples = 165\nvalue = [2, 6, 144, 13]"] ;
41 -> 42 ;
43 [label="gini = 0.0\nsamples = 1\nvalue = [0, 1, 0, 0]"] ;
42 -> 43 ;
44 [label="x[311] <= -0.011\ngini = 0.222\nsamples = 164\nvalue = [2, 5, 144, 13]"] ;
42 -> 44 ;
45 [label="gini = 0.0\nsamples = 1\nvalue = [0, 1, 0, 0]"] ;
44 -> 45 ;
46 [label="x[310] <= 0.0\ngini = 0.212\nsamples = 163\nvalue = [2, 4, 144, 13]"] ;
44 -> 46 ;
47 [label="x[198] <= -0.122\ngini = 0.203\nsamples = 162\nvalue = [2, 3, 144, 13]"] ;
46 -> 47 ;
48 [label="gini = 0.0\nsamples = 1\nvalue = [0, 1, 0, 0]"] ;
47 -> 48 ;
49 [label="x[323] <= -0.018\ngini = 0.193\nsamples = 161\nvalue = [2, 2, 144, 13]"] ;
47 -> 49 ;
50 [label="gini = 0.0\nsamples = 1\nvalue = [0, 1, 0, 0]"] ;
49 -> 50 ;
51 [label="x[287] <= -0.0\ngini = 0.183\nsamples = 160\nvalue = [2, 1, 144, 13]"] ;
49 -> 51 ;
52 [label="gini = 0.0\nsamples = 1\nvalue = [0, 0, 0, 1]"] ;
51 -> 52 ;
53 [label="x[316] <= 0.002\ngini = 0.174\nsamples = 159\nvalue = [2, 1, 144, 12]"] ;
51 -> 53 ;
54 [label="x[318] <= -0.005\ngini = 0.164\nsamples = 158\nvalue = [2, 1, 144, 11]"] ;
53 -> 54 ;
55 [label="gini = 0.0\nsamples = 1\nvalue = [0, 0, 0, 1]"] ;
54 -> 55 ;
56 [label="x[279] <= -0.01\ngini = 0.154\nsamples = 157\nvalue = [2, 1, 144, 10]"] ;
54 -> 56 ;
57 [label="gini = 0.0\nsamples = 1\nvalue = [0, 0, 0, 1]"] ;
56 -> 57 ;
58 [label="x[157] <= -0.002\ngini = 0.144\nsamples = 156\nvalue = [2, 1, 144, 9]"] ;
56 -> 58 ;
59 [label="x[278] <= -0.0\ngini = 0.48\nsamples = 5\nvalue = [0, 0, 3, 2]"] ;
58 -> 59 ;
60 [label="gini = 0.0\nsamples = 3\nvalue = [0, 0, 3, 0]"] ;
59 -> 60 ;
61 [label="gini = 0.0\nsamples = 2\nvalue = [0, 0, 0, 2]"] ;
59 -> 61 ;
62 [label="x[167] <= -0.129\ngini = 0.126\nsamples = 151\nvalue = [2, 1, 141, 7]"] ;
58 -> 62 ;
63 [label="x[167] <= -0.133\ngini = 0.5\nsamples = 2\nvalue = [1, 0, 1, 0]"] ;
62 -> 63 ;
64 [label="gini = 0.0\nsamples = 1\nvalue = [0, 0, 1, 0]"] ;
63 -> 64 ;
65 [label="gini = 0.0\nsamples = 1\nvalue = [1, 0, 0, 0]"] ;
63 -> 65 ;
66 [label="x[154] <= -0.006\ngini = 0.115\nsamples = 149\nvalue = [1, 1, 140, 7]"] ;
62 -> 66 ;
67 [label="x[154] <= -0.07\ngini = 0.5\nsamples = 2\nvalue = [0, 0, 1, 1]"] ;
66 -> 67 ;
68 [label="gini = 0.0\nsamples = 1\nvalue = [0, 0, 1, 0]"] ;
67 -> 68 ;
69 [label="gini = 0.0\nsamples = 1\nvalue = [0, 0, 0, 1]"] ;
67 -> 69 ;
70 [label="x[185] <= -0.013\ngini = 0.104\nsamples = 147\nvalue = [1, 1, 139, 6]"] ;
66 -> 70 ;
71 [label="x[185] <= -0.067\ngini = 0.408\nsamples = 7\nvalue = [0, 0, 5, 2]"] ;
70 -> 71 ;
72 [label="gini = 0.0\nsamples = 5\nvalue = [0, 0, 5, 0]"] ;
71 -> 72 ;
73 [label="gini = 0.0\nsamples = 2\nvalue = [0, 0, 0, 2]"] ;
71 -> 73 ;
74 [label="x[170] <= -0.146\ngini = 0.083\nsamples = 140\nvalue = [1, 1, 134, 4]"] ;
70 -> 74 ;
75 [label="x[158] <= -0.05\ngini = 0.5\nsamples = 2\nvalue = [0, 0, 1, 1]"] ;
74 -> 75 ;
76 [label="gini = 0.0\nsamples = 1\nvalue = [0, 0, 0, 1]"] ;
75 -> 76 ;
77 [label="gini = 0.0\nsamples = 1\nvalue = [0, 0, 1, 0]"] ;
75 -> 77 ;
78 [label="x[173] <= -0.056\ngini = 0.071\nsamples = 138\nvalue = [1, 1, 133, 3]"] ;
74 -> 78 ;
79 [label="x[173] <= -0.092\ngini = 0.357\nsamples = 14\nvalue = [0, 1, 11, 2]"] ;
78 -> 79 ;
80 [label="gini = 0.0\nsamples = 10\nvalue = [0, 0, 10, 0]"] ;
79 -> 80 ;
81 [label="x[173] <= -0.07\ngini = 0.625\nsamples = 4\nvalue = [0, 1, 1, 2]"] ;
79 -> 81 ;
82 [label="x[294] <= -0.003\ngini = 0.444\nsamples = 3\nvalue = [0, 0, 1, 2]"] ;
81 -> 82 ;
83 [label="gini = 0.0\nsamples = 1\nvalue = [0, 0, 1, 0]"] ;
82 -> 83 ;
84 [label="gini = 0.0\nsamples = 2\nvalue = [0, 0, 0, 2]"] ;
82 -> 84 ;
85 [label="gini = 0.0\nsamples = 1\nvalue = [0, 1, 0, 0]"] ;
81 -> 85 ;
86 [label="x[168] <= -0.11\ngini = 0.032\nsamples = 124\nvalue = [1, 0, 122, 1]"] ;
78 -> 86 ;
87 [label="x[289] <= -0.0\ngini = 0.444\nsamples = 3\nvalue = [1, 0, 2, 0]"] ;
86 -> 87 ;
88 [label="gini = 0.0\nsamples = 2\nvalue = [0, 0, 2, 0]"] ;
87 -> 88 ;
89 [label="gini = 0.0\nsamples = 1\nvalue = [1, 0, 0, 0]"] ;
87 -> 89 ;
90 [label="x[197] <= -0.005\ngini = 0.016\nsamples = 121\nvalue = [0, 0, 120, 1]"] ;
86 -> 90 ;
91 [label="x[48] <= 0.5\ngini = 0.219\nsamples = 8\nvalue = [0, 0, 7, 1]"] ;
90 -> 91 ;
92 [label="gini = 0.0\nsamples = 7\nvalue = [0, 0, 7, 0]"] ;
91 -> 92 ;
93 [label="gini = 0.0\nsamples = 1\nvalue = [0, 0, 0, 1]"] ;
91 -> 93 ;
94 [label="gini = 0.0\nsamples = 113\nvalue = [0, 0, 113, 0]"] ;
90 -> 94 ;
95 [label="gini = 0.0\nsamples = 1\nvalue = [0, 0, 0, 1]"] ;
53 -> 95 ;
96 [label="gini = 0.0\nsamples = 1\nvalue = [0, 1, 0, 0]"] ;
46 -> 96 ;
97 [label="gini = 0.0\nsamples = 1\nvalue = [1, 0, 0, 0]"] ;
41 -> 97 ;
98 [label="gini = 0.0\nsamples = 1\nvalue = [1, 0, 0, 0]"] ;
40 -> 98 ;
99 [label="x[174] <= -0.013\ngini = 0.562\nsamples = 11\nvalue = [0, 1, 6, 4]"] ;
39 -> 99 ;
100 [label="x[191] <= -0.056\ngini = 0.494\nsamples = 9\nvalue = [0, 1, 6, 2]"] ;
99 -> 100 ;
101 [label="gini = 0.0\nsamples = 1\nvalue = [0, 1, 0, 0]"] ;
100 -> 101 ;
102 [label="x[73] <= 0.5\ngini = 0.375\nsamples = 8\nvalue = [0, 0, 6, 2]"] ;
100 -> 102 ;
103 [label="x[314] <= 0.005\ngini = 0.245\nsamples = 7\nvalue = [0, 0, 6, 1]"] ;
102 -> 103 ;
104 [label="gini = 0.0\nsamples = 6\nvalue = [0, 0, 6, 0]"] ;
103 -> 104 ;
105 [label="gini = 0.0\nsamples = 1\nvalue = [0, 0, 0, 1]"] ;
103 -> 105 ;
106 [label="gini = 0.0\nsamples = 1\nvalue = [0, 0, 0, 1]"] ;
102 -> 106 ;
107 [label="gini = 0.0\nsamples = 2\nvalue = [0, 0, 0, 2]"] ;
99 -> 107 ;
108 [label="x[58] <= 0.5\ngini = 0.5\nsamples = 2\nvalue = [1, 0, 0, 1]"] ;
38 -> 108 ;
109 [label="gini = 0.0\nsamples = 1\nvalue = [0, 0, 0, 1]"] ;
108 -> 109 ;
110 [label="gini = 0.0\nsamples = 1\nvalue = [1, 0, 0, 0]"] ;
108 -> 110 ;
111 [label="gini = 0.0\nsamples = 2\nvalue = [0, 0, 0, 2]"] ;
37 -> 111 ;
112 [label="x[197] <= -0.033\ngini = 0.444\nsamples = 3\nvalue = [1, 0, 0, 2]"] ;
34 -> 112 ;
113 [label="gini = 0.0\nsamples = 2\nvalue = [0, 0, 0, 2]"] ;
112 -> 113 ;
114 [label="gini = 0.0\nsamples = 1\nvalue = [1, 0, 0, 0]"] ;
112 -> 114 ;
115 [label="x[317] <= 0.038\ngini = 0.66\nsamples = 18\nvalue = [3, 1, 8, 6]"] ;
33 -> 115 ;
116 [label="x[196] <= -0.119\ngini = 0.602\nsamples = 16\nvalue = [1, 1, 8, 6]"] ;
115 -> 116 ;
117 [label="gini = 0.0\nsamples = 4\nvalue = [0, 0, 4, 0]"] ;
116 -> 117 ;
118 [label="x[317] <= -0.019\ngini = 0.625\nsamples = 12\nvalue = [1, 1, 4, 6]"] ;
116 -> 118 ;
119 [label="x[317] <= -0.04\ngini = 0.5\nsamples = 2\nvalue = [1, 1, 0, 0]"] ;
118 -> 119 ;
120 [label="gini = 0.0\nsamples = 1\nvalue = [0, 1, 0, 0]"] ;
119 -> 120 ;
121 [label="gini = 0.0\nsamples = 1\nvalue = [1, 0, 0, 0]"] ;
119 -> 121 ;
122 [label="x[64] <= 0.5\ngini = 0.48\nsamples = 10\nvalue = [0, 0, 4, 6]"] ;
118 -> 122 ;
123 [label="x[196] <= -0.012\ngini = 0.5\nsamples = 8\nvalue = [0, 0, 4, 4]"] ;
122 -> 123 ;
124 [label="x[317] <= -0.007\ngini = 0.444\nsamples = 6\nvalue = [0, 0, 4, 2]"] ;
123 -> 124 ;
125 [label="gini = 0.0\nsamples = 1\nvalue = [0, 0, 0, 1]"] ;
124 -> 125 ;
126 [label="x[317] <= 0.02\ngini = 0.32\nsamples = 5\nvalue = [0, 0, 4, 1]"] ;
124 -> 126 ;
127 [label="gini = 0.0\nsamples = 4\nvalue = [0, 0, 4, 0]"] ;
126 -> 127 ;
128 [label="gini = 0.0\nsamples = 1\nvalue = [0, 0, 0, 1]"] ;
126 -> 128 ;
129 [label="gini = 0.0\nsamples = 2\nvalue = [0, 0, 0, 2]"] ;
123 -> 129 ;
130 [label="gini = 0.0\nsamples = 2\nvalue = [0, 0, 0, 2]"] ;
122 -> 130 ;
131 [label="gini = 0.0\nsamples = 2\nvalue = [2, 0, 0, 0]"] ;
115 -> 131 ;
132 [label="x[172] <= -0.027\ngini = 0.538\nsamples = 24\nvalue = [0, 1, 12, 11]"] ;
18 -> 132 ;
133 [label="x[177] <= -0.063\ngini = 0.418\nsamples = 15\nvalue = [0, 1, 11, 3]"] ;
132 -> 133 ;
134 [label="gini = 0.0\nsamples = 1\nvalue = [0, 1, 0, 0]"] ;
133 -> 134 ;
135 [label="x[44] <= 0.5\ngini = 0.337\nsamples = 14\nvalue = [0, 0, 11, 3]"] ;
133 -> 135 ;
136 [label="x[158] <= -0.011\ngini = 0.26\nsamples = 13\nvalue = [0, 0, 11, 2]"] ;
135 -> 136 ;
137 [label="gini = 0.0\nsamples = 1\nvalue = [0, 0, 0, 1]"] ;
136 -> 137 ;
138 [label="x[172] <= -0.13\ngini = 0.153\nsamples = 12\nvalue = [0, 0, 11, 1]"] ;
136 -> 138 ;
139 [label="gini = 0.0\nsamples = 1\nvalue = [0, 0, 0, 1]"] ;
138 -> 139 ;
140 [label="gini = 0.0\nsamples = 11\nvalue = [0, 0, 11, 0]"] ;
138 -> 140 ;
141 [label="gini = 0.0\nsamples = 1\nvalue = [0, 0, 0, 1]"] ;
135 -> 141 ;
142 [label="x[172] <= 0.014\ngini = 0.198\nsamples = 9\nvalue = [0, 0, 1, 8]"] ;
132 -> 142 ;
143 [label="gini = 0.0\nsamples = 8\nvalue = [0, 0, 0, 8]"] ;
142 -> 143 ;
144 [label="gini = 0.0\nsamples = 1\nvalue = [0, 0, 1, 0]"] ;
142 -> 144 ;
145 [label="gini = 0.0\nsamples = 3\nvalue = [0, 0, 0, 3]"] ;
17 -> 145 ;
146 [label="gini = 0.0\nsamples = 3\nvalue = [0, 0, 0, 3]"] ;
16 -> 146 ;
147 [label="gini = 0.0\nsamples = 3\nvalue = [0, 0, 0, 3]"] ;
15 -> 147 ;
148 [label="x[182] <= -0.092\ngini = 0.611\nsamples = 6\nvalue = [2, 1, 0, 3]"] ;
14 -> 148 ;
149 [label="gini = 0.0\nsamples = 1\nvalue = [0, 1, 0, 0]"] ;
148 -> 149 ;
150 [label="x[182] <= 0.002\ngini = 0.48\nsamples = 5\nvalue = [2, 0, 0, 3]"] ;
148 -> 150 ;
151 [label="x[41] <= 0.5\ngini = 0.444\nsamples = 3\nvalue = [2, 0, 0, 1]"] ;
150 -> 151 ;
152 [label="gini = 0.0\nsamples = 2\nvalue = [2, 0, 0, 0]"] ;
151 -> 152 ;
153 [label="gini = 0.0\nsamples = 1\nvalue = [0, 0, 0, 1]"] ;
151 -> 153 ;
154 [label="gini = 0.0\nsamples = 2\nvalue = [0, 0, 0, 2]"] ;
150 -> 154 ;
155 [label="gini = 0.0\nsamples = 3\nvalue = [3, 0, 0, 0]"] ;
11 -> 155 ;
156 [label="gini = 0.0\nsamples = 6\nvalue = [0, 0, 0, 6]"] ;
4 -> 156 ;
157 [label="x[304] <= -0.011\ngini = 0.616\nsamples = 31\nvalue = [7, 8, 0, 16]"] ;
1 -> 157 ;
158 [label="gini = 0.0\nsamples = 7\nvalue = [0, 7, 0, 0]"] ;
157 -> 158 ;
159 [label="x[304] <= 0.0\ngini = 0.469\nsamples = 24\nvalue = [7, 1, 0, 16]"] ;
157 -> 159 ;
160 [label="x[190] <= 0.004\ngini = 0.29\nsamples = 18\nvalue = [2, 1, 0, 15]"] ;
159 -> 160 ;
161 [label="x[172] <= 0.003\ngini = 0.208\nsamples = 17\nvalue = [2, 0, 0, 15]"] ;
160 -> 161 ;
162 [label="x[47] <= 0.5\ngini = 0.117\nsamples = 16\nvalue = [1, 0, 0, 15]"] ;
161 -> 162 ;
163 [label="gini = 0.0\nsamples = 14\nvalue = [0, 0, 0, 14]"] ;
162 -> 163 ;
164 [label="x[192] <= 0.004\ngini = 0.5\nsamples = 2\nvalue = [1, 0, 0, 1]"] ;
162 -> 164 ;
165 [label="gini = 0.0\nsamples = 1\nvalue = [0, 0, 0, 1]"] ;
164 -> 165 ;
166 [label="gini = 0.0\nsamples = 1\nvalue = [1, 0, 0, 0]"] ;
164 -> 166 ;
167 [label="gini = 0.0\nsamples = 1\nvalue = [1, 0, 0, 0]"] ;
161 -> 167 ;
168 [label="gini = 0.0\nsamples = 1\nvalue = [0, 1, 0, 0]"] ;
160 -> 168 ;
169 [label="x[51] <= 0.5\ngini = 0.278\nsamples = 6\nvalue = [5, 0, 0, 1]"] ;
159 -> 169 ;
170 [label="gini = 0.0\nsamples = 5\nvalue = [5, 0, 0, 0]"] ;
169 -> 170 ;
171 [label="gini = 0.0\nsamples = 1\nvalue = [0, 0, 0, 1]"] ;
169 -> 171 ;
172 [label="x[184] <= -0.095\ngini = 0.636\nsamples = 45\nvalue = [9, 8, 4, 24]"] ;
0 -> 172 [labeldistance=2.5, labelangle=-45, headlabel="False"] ;
173 [label="x[305] <= -0.011\ngini = 0.648\nsamples = 18\nvalue = [7, 7, 4, 0]"] ;
172 -> 173 ;
174 [label="gini = 0.0\nsamples = 4\nvalue = [0, 4, 0, 0]"] ;
173 -> 174 ;
175 [label="x[184] <= -0.114\ngini = 0.622\nsamples = 14\nvalue = [7, 3, 4, 0]"] ;
173 -> 175 ;
176 [label="x[184] <= -0.128\ngini = 0.46\nsamples = 10\nvalue = [7, 2, 1, 0]"] ;
175 -> 176 ;
177 [label="x[44] <= 0.5\ngini = 0.5\nsamples = 2\nvalue = [0, 1, 1, 0]"] ;
176 -> 177 ;
178 [label="gini = 0.0\nsamples = 1\nvalue = [0, 1, 0, 0]"] ;
177 -> 178 ;
179 [label="gini = 0.0\nsamples = 1\nvalue = [0, 0, 1, 0]"] ;
177 -> 179 ;
180 [label="x[200] <= -0.055\ngini = 0.219\nsamples = 8\nvalue = [7, 1, 0, 0]"] ;
176 -> 180 ;
181 [label="gini = 0.0\nsamples = 1\nvalue = [0, 1, 0, 0]"] ;
180 -> 181 ;
182 [label="gini = 0.0\nsamples = 7\nvalue = [7, 0, 0, 0]"] ;
180 -> 182 ;
183 [label="x[69] <= 0.5\ngini = 0.375\nsamples = 4\nvalue = [0, 1, 3, 0]"] ;
175 -> 183 ;
184 [label="gini = 0.0\nsamples = 3\nvalue = [0, 0, 3, 0]"] ;
183 -> 184 ;
185 [label="gini = 0.0\nsamples = 1\nvalue = [0, 1, 0, 0]"] ;
183 -> 185 ;
186 [label="x[184] <= 0.022\ngini = 0.203\nsamples = 27\nvalue = [2, 1, 0, 24]"] ;
172 -> 186 ;
187 [label="x[305] <= 0.028\ngini = 0.142\nsamples = 26\nvalue = [2, 0, 0, 24]"] ;
186 -> 187 ;
188 [label="x[173] <= -0.036\ngini = 0.077\nsamples = 25\nvalue = [1, 0, 0, 24]"] ;
187 -> 188 ;
189 [label="gini = 0.0\nsamples = 1\nvalue = [1, 0, 0, 0]"] ;
188 -> 189 ;
190 [label="gini = 0.0\nsamples = 24\nvalue = [0, 0, 0, 24]"] ;
188 -> 190 ;
191 [label="gini = 0.0\nsamples = 1\nvalue = [1, 0, 0, 0]"] ;
187 -> 191 ;
192 [label="gini = 0.0\nsamples = 1\nvalue = [0, 1, 0, 0]"] ;
186 -> 192 ;
}
