digraph Tree {
node [shape=box, fontname="helvetica"] ;
edge [fontname="helvetica"] ;
0 [label="x[47] <= 0.5\ngini = 0.8\nsamples = 1479\nvalue = [295.8, 295.8, 295.8, 295.8, 295.8]"] ;
1 [label="x[304] <= -0.015\ngini = 0.796\nsamples = 1419\nvalue = [190.839, 285.164, 295.8, 295.8, 290.112]"] ;
0 -> 1 [labeldistance=2.5, labelangle=45, headlabel="True"] ;
2 [label="x[179] <= -0.083\ngini = 0.033\nsamples = 14\nvalue = [0.0, 1.329, 78.88, 0.0, 0.0]"] ;
1 -> 2 ;
3 [label="gini = 0.0\nsamples = 3\nvalue = [0.0, 0.665, 0.0, 0.0, 0.0]"] ;
2 -> 3 ;
4 [label="x[178] <= -0.049\ngini = 0.017\nsamples = 11\nvalue = [0.0, 0.665, 78.88, 0.0, 0.0]"] ;
2 -> 4 ;
5 [label="gini = 0.0\nsamples = 1\nvalue = [0.0, 0.222, 0.0, 0.0, 0.0]"] ;
4 -> 5 ;
6 [label="x[184] <= -0.026\ngini = 0.011\nsamples = 10\nvalue = [0.0, 0.443, 78.88, 0.0, 0.0]"] ;
4 -> 6 ;
7 [label="gini = 0.0\nsamples = 1\nvalue = [0.0, 0.222, 0.0, 0.0, 0.0]"] ;
6 -> 7 ;
8 [label="x[294] <= -0.021\ngini = 0.006\nsamples = 9\nvalue = [0.0, 0.222, 78.88, 0.0, 0.0]"] ;
6 -> 8 ;
9 [label="gini = 0.0\nsamples = 1\nvalue = [0.0, 0.222, 0.0, 0.0, 0.0]"] ;
8 -> 9 ;
10 [label="gini = -0.0\nsamples = 8\nvalue = [0.0, 0.0, 78.88, 0.0, 0.0]"] ;
8 -> 10 ;
11 [label="x[184] <= -0.014\ngini = 0.794\nsamples = 1405\nvalue = [190.839, 283.835, 216.92, 295.8, 290.112]"] ;
1 -> 11 ;
12 [label="x[175] <= -0.03\ngini = 0.467\nsamples = 68\nvalue = [9.542, 10.636, 19.72, 0.0, 96.704]"] ;
11 -> 12 ;
13 [label="gini = 0.0\nsamples = 1\nvalue = [0.0, 0.0, 9.86, 0.0, 0.0]"] ;
12 -> 13 ;
14 [label="x[190] <= -0.03\ngini = 0.399\nsamples = 67\nvalue = [9.542, 10.636, 9.86, 0.0, 96.704]"] ;
12 -> 14 ;
15 [label="x[184] <= -0.062\ngini = 0.043\nsamples = 2\nvalue = [0.0, 0.222, 9.86, 0.0, 0.0]"] ;
14 -> 15 ;
16 [label="gini = 0.0\nsamples = 1\nvalue = [0.0, 0.0, 9.86, 0.0, 0.0]"] ;
15 -> 16 ;
17 [label="gini = -0.0\nsamples = 1\nvalue = [0.0, 0.222, 0.0, 0.0, 0.0]"] ;
15 -> 17 ;
18 [label="x[184] <= -0.035\ngini = 0.298\nsamples = 65\nvalue = [9.542, 10.414, 0.0, 0.0, 96.704]"] ;
14 -> 18 ;
19 [label="x[184] <= -0.036\ngini = 0.437\nsamples = 44\nvalue = [9.542, 7.755, 0.0, 0.0, 45.508]"] ;
18 -> 19 ;
20 [label="x[184] <= -0.051\ngini = 0.249\nsamples = 43\nvalue = [0.0, 7.755, 0.0, 0.0, 45.508]"] ;
19 -> 20 ;
21 [label="x[48] <= 0.5\ngini = 0.187\nsamples = 32\nvalue = [0.0, 5.318, 0.0, 0.0, 45.508]"] ;
20 -> 21 ;
22 [label="x[305] <= 0.0\ngini = 0.155\nsamples = 27\nvalue = [0.0, 4.21, 0.0, 0.0, 45.508]"] ;
21 -> 22 ;
23 [label="x[49] <= 0.5\ngini = 0.134\nsamples = 24\nvalue = [0.0, 3.545, 0.0, 0.0, 45.508]"] ;
22 -> 23 ;
24 [label="x[184] <= -0.068\ngini = 0.112\nsamples = 21\nvalue = [0.0, 2.88, 0.0, 0.0, 45.508]"] ;
23 -> 24 ;
25 [label="gini = 0.0\nsamples = 6\nvalue = [0.0, 0.0, 0.0, 0.0, 34.131]"] ;
24 -> 25 ;
26 [label="x[184] <= -0.066\ngini = 0.322\nsamples = 15\nvalue = [0.0, 2.88, 0.0, 0.0, 11.377]"] ;
24 -> 26 ;
27 [label="gini = 0.0\nsamples = 4\nvalue = [0.0, 0.886, 0.0, 0.0, 0.0]"] ;
26 -> 27 ;
28 [label="x[161] <= -0.03\ngini = 0.254\nsamples = 11\nvalue = [0.0, 1.994, 0.0, 0.0, 11.377]"] ;
26 -> 28 ;
29 [label="gini = 0.0\nsamples = 1\nvalue = [0.0, 0.0, 0.0, 0.0, 5.688]"] ;
28 -> 29 ;
30 [label="x[193] <= -0.023\ngini = 0.384\nsamples = 10\nvalue = [0.0, 1.994, 0.0, 0.0, 5.688]"] ;
28 -> 30 ;
31 [label="gini = 0.0\nsamples = 1\nvalue = [0.0, 0.0, 0.0, 0.0, 5.688]"] ;
30 -> 31 ;
32 [label="gini = 0.0\nsamples = 9\nvalue = [0.0, 1.994, 0.0, 0.0, 0.0]"] ;
30 -> 32 ;
33 [label="gini = -0.0\nsamples = 3\nvalue = [0.0, 0.665, 0.0, 0.0, 0.0]"] ;
23 -> 33 ;
34 [label="gini = -0.0\nsamples = 3\nvalue = [0.0, 0.665, 0.0, 0.0, 0.0]"] ;
22 -> 34 ;
35 [label="gini = -0.0\nsamples = 5\nvalue = [0.0, 1.108, 0.0, 0.0, 0.0]"] ;
21 -> 35 ;
36 [label="gini = -0.0\nsamples = 11\nvalue = [0.0, 2.437, 0.0, 0.0, 0.0]"] ;
20 -> 36 ;
37 [label="gini = -0.0\nsamples = 1\nvalue = [9.542, 0.0, 0.0, 0.0, 0.0]"] ;
19 -> 37 ;
38 [label="x[292] <= -0.0\ngini = 0.094\nsamples = 21\nvalue = [0.0, 2.659, 0.0, 0.0, 51.196]"] ;
18 -> 38 ;
39 [label="gini = 0.0\nsamples = 3\nvalue = [0.0, 0.665, 0.0, 0.0, 0.0]"] ;
38 -> 39 ;
40 [label="x[160] <= 0.01\ngini = 0.072\nsamples = 18\nvalue = [0.0, 1.994, 0.0, 0.0, 51.196]"] ;
38 -> 40 ;
41 [label="x[40] <= 0.5\ngini = 0.065\nsamples = 17\nvalue = [0.0, 1.773, 0.0, 0.0, 51.196]"] ;
40 -> 41 ;
42 [label="x[172] <= 0.009\ngini = 0.057\nsamples = 16\nvalue = [0.0, 1.551, 0.0, 0.0, 51.196]"] ;
41 -> 42 ;
43 [label="x[313] <= 0.0\ngini = 0.049\nsamples = 15\nvalue = [0.0, 1.329, 0.0, 0.0, 51.196]"] ;
42 -> 43 ;
44 [label="x[37] <= 0.5\ngini = 0.041\nsamples = 14\nvalue = [0.0, 1.108, 0.0, 0.0, 51.196]"] ;
43 -> 44 ;
45 [label="x[184] <= -0.031\ngini = 0.033\nsamples = 13\nvalue = [0.0, 0.886, 0.0, 0.0, 51.196]"] ;
44 -> 45 ;
46 [label="x[51] <= 0.5\ngini = 0.134\nsamples = 3\nvalue = [0.0, 0.443, 0.0, 0.0, 5.688]"] ;
45 -> 46 ;
47 [label="gini = 0.0\nsamples = 2\nvalue = [0.0, 0.443, 0.0, 0.0, 0.0]"] ;
46 -> 47 ;
48 [label="gini = 0.0\nsamples = 1\nvalue = [0.0, 0.0, 0.0, 0.0, 5.688]"] ;
46 -> 48 ;
49 [label="x[171] <= 0.006\ngini = 0.019\nsamples = 10\nvalue = [0.0, 0.443, 0.0, 0.0, 45.508]"] ;
45 -> 49 ;
50 [label="x[74] <= 0.5\ngini = 0.011\nsamples = 8\nvalue = [0.0, 0.222, 0.0, 0.0, 39.819]"] ;
49 -> 50 ;
51 [label="x[325] <= 0.0\ngini = 0.0\nsamples = 6\nvalue = [0.0, 0.0, 0.0, 0.0, 34.131]"] ;
50 -> 51 ;
52 [label="gini = 0.0\nsamples = 5\nvalue = [0.0, 0.0, 0.0, 0.0, 28.442]"] ;
51 -> 52 ;
53 [label="gini = 0.0\nsamples = 1\nvalue = [0.0, 0.0, 0.0, 0.0, 5.688]"] ;
51 -> 53 ;
54 [label="x[184] <= -0.018\ngini = 0.072\nsamples = 2\nvalue = [0.0, 0.222, 0.0, 0.0, 5.688]"] ;
50 -> 54 ;
55 [label="gini = 0.0\nsamples = 1\nvalue = [0.0, 0.222, 0.0, 0.0, 0.0]"] ;
54 -> 55 ;
56 [label="gini = 0.0\nsamples = 1\nvalue = [0.0, 0.0, 0.0, 0.0, 5.688]"] ;
54 -> 56 ;
57 [label="x[171] <= 0.015\ngini = 0.072\nsamples = 2\nvalue = [0.0, 0.222, 0.0, 0.0, 5.688]"] ;
49 -> 57 ;
58 [label="gini = 0.0\nsamples = 1\nvalue = [0.0, 0.222, 0.0, 0.0, 0.0]"] ;
57 -> 58 ;
59 [label="gini = 0.0\nsamples = 1\nvalue = [0.0, 0.0, 0.0, 0.0, 5.688]"] ;
57 -> 59 ;
60 [label="gini = -0.0\nsamples = 1\nvalue = [0.0, 0.222, 0.0, 0.0, 0.0]"] ;
44 -> 60 ;
61 [label="gini = -0.0\nsamples = 1\nvalue = [0.0, 0.222, 0.0, 0.0, 0.0]"] ;
43 -> 61 ;
62 [label="gini = -0.0\nsamples = 1\nvalue = [0.0, 0.222, 0.0, 0.0, 0.0]"] ;
42 -> 62 ;
63 [label="gini = -0.0\nsamples = 1\nvalue = [0.0, 0.222, 0.0, 0.0, 0.0]"] ;
41 -> 63 ;
64 [label="gini = -0.0\nsamples = 1\nvalue = [0.0, 0.222, 0.0, 0.0, 0.0]"] ;
40 -> 64 ;
65 [label="x[304] <= 0.035\ngini = 0.792\nsamples = 1337\nvalue = [181.297, 273.2, 197.2, 295.8, 193.408]"] ;
11 -> 65 ;
66 [label="x[183] <= -0.007\ngini = 0.786\nsamples = 1328\nvalue = [133.587, 272.313, 197.2, 295.8, 193.408]"] ;
65 -> 66 ;
67 [label="x[183] <= -0.072\ngini = 0.483\nsamples = 25\nvalue = [9.542, 2.216, 19.72, 0.0, 68.262]"] ;
66 -> 67 ;
68 [label="gini = 0.0\nsamples = 1\nvalue = [9.542, 0.0, 0.0, 0.0, 0.0]"] ;
67 -> 68 ;
69 [label="x[85] <= 0.5\ngini = 0.379\nsamples = 24\nvalue = [0.0, 2.216, 19.72, 0.0, 68.262]"] ;
67 -> 69 ;
70 [label="x[183] <= -0.058\ngini = 0.262\nsamples = 23\nvalue = [0.0, 2.216, 9.86, 0.0, 68.262]"] ;
69 -> 70 ;
71 [label="x[183] <= -0.069\ngini = 0.493\nsamples = 4\nvalue = [0.0, 0.443, 9.86, 0.0, 5.688]"] ;
70 -> 71 ;
72 [label="gini = 0.0\nsamples = 1\nvalue = [0.0, 0.0, 0.0, 0.0, 5.688]"] ;
71 -> 72 ;
73 [label="x[54] <= 0.5\ngini = 0.082\nsamples = 3\nvalue = [0.0, 0.443, 9.86, 0.0, 0.0]"] ;
71 -> 73 ;
74 [label="x[45] <= 0.5\ngini = 0.043\nsamples = 2\nvalue = [0.0, 0.222, 9.86, 0.0, 0.0]"] ;
73 -> 74 ;
75 [label="gini = 0.0\nsamples = 1\nvalue = [0.0, 0.0, 9.86, 0.0, 0.0]"] ;
74 -> 75 ;
76 [label="gini = -0.0\nsamples = 1\nvalue = [0.0, 0.222, 0.0, 0.0, 0.0]"] ;
74 -> 76 ;
77 [label="gini = -0.0\nsamples = 1\nvalue = [0.0, 0.222, 0.0, 0.0, 0.0]"] ;
73 -> 77 ;
78 [label="x[191] <= -0.045\ngini = 0.054\nsamples = 19\nvalue = [0.0, 1.773, 0.0, 0.0, 62.573]"] ;
70 -> 78 ;
79 [label="gini = 0.0\nsamples = 2\nvalue = [0.0, 0.443, 0.0, 0.0, 0.0]"] ;
78 -> 79 ;
80 [label="x[54] <= 0.5\ngini = 0.041\nsamples = 17\nvalue = [0.0, 1.329, 0.0, 0.0, 62.573]"] ;
78 -> 80 ;
81 [label="x[173] <= 0.007\ngini = 0.034\nsamples = 16\nvalue = [0.0, 1.108, 0.0, 0.0, 62.573]"] ;
80 -> 81 ;
82 [label="x[45] <= 0.5\ngini = 0.028\nsamples = 15\nvalue = [0.0, 0.886, 0.0, 0.0, 62.573]"] ;
81 -> 82 ;
83 [label="x[51] <= 0.5\ngini = 0.021\nsamples = 14\nvalue = [0.0, 0.665, 0.0, 0.0, 62.573]"] ;
82 -> 83 ;
84 [label="x[205] <= 0.022\ngini = 0.014\nsamples = 13\nvalue = [0.0, 0.443, 0.0, 0.0, 62.573]"] ;
83 -> 84 ;
85 [label="x[193] <= 0.002\ngini = 0.007\nsamples = 12\nvalue = [0.0, 0.222, 0.0, 0.0, 62.573]"] ;
84 -> 85 ;
86 [label="gini = 0.0\nsamples = 10\nvalue = [0.0, 0.0, 0.0, 0.0, 56.885]"] ;
85 -> 86 ;
87 [label="x[205] <= 0.021\ngini = 0.072\nsamples = 2\nvalue = [0.0, 0.222, 0.0, 0.0, 5.688]"] ;
85 -> 87 ;
88 [label="gini = 0.0\nsamples = 1\nvalue = [0.0, 0.222, 0.0, 0.0, 0.0]"] ;
87 -> 88 ;
89 [label="gini = 0.0\nsamples = 1\nvalue = [0.0, 0.0, 0.0, 0.0, 5.688]"] ;
87 -> 89 ;
90 [label="gini = -0.0\nsamples = 1\nvalue = [0.0, 0.222, 0.0, 0.0, 0.0]"] ;
84 -> 90 ;
91 [label="gini = -0.0\nsamples = 1\nvalue = [0.0, 0.222, 0.0, 0.0, 0.0]"] ;
83 -> 91 ;
92 [label="gini = -0.0\nsamples = 1\nvalue = [0.0, 0.222, 0.0, 0.0, 0.0]"] ;
82 -> 92 ;
93 [label="gini = -0.0\nsamples = 1\nvalue = [0.0, 0.222, 0.0, 0.0, 0.0]"] ;
81 -> 93 ;
94 [label="gini = -0.0\nsamples = 1\nvalue = [0.0, 0.222, 0.0, 0.0, 0.0]"] ;
80 -> 94 ;
95 [label="gini = 0.0\nsamples = 1\nvalue = [0.0, 0.0, 9.86, 0.0, 0.0]"] ;
69 -> 95 ;
96 [label="x[307] <= -0.044\ngini = 0.774\nsamples = 1303\nvalue = [124.045, 270.098, 177.48, 295.8, 125.146]"] ;
66 -> 96 ;
97 [label="x[307] <= -0.054\ngini = 0.043\nsamples = 8\nvalue = [0.0, 0.886, 39.44, 0.0, 0.0]"] ;
96 -> 97 ;
98 [label="gini = 0.0\nsamples = 2\nvalue = [0.0, 0.443, 0.0, 0.0, 0.0]"] ;
97 -> 98 ;
99 [label="x[186] <= 0.002\ngini = 0.022\nsamples = 6\nvalue = [0.0, 0.443, 39.44, 0.0, 0.0]"] ;
97 -> 99 ;
100 [label="x[58] <= 0.5\ngini = 0.011\nsamples = 5\nvalue = [0.0, 0.222, 39.44, 0.0, 0.0]"] ;
99 -> 100 ;
101 [label="x[296] <= -0.022\ngini = 0.0\nsamples = 4\nvalue = [0.0, 0.0, 39.44, 0.0, 0.0]"] ;
100 -> 101 ;
102 [label="gini = 0.0\nsamples = 1\nvalue = [0.0, 0.0, 9.86, 0.0, 0.0]"] ;
101 -> 102 ;
103 [label="gini = 0.0\nsamples = 3\nvalue = [0.0, 0.0, 29.58, 0.0, 0.0]"] ;
101 -> 103 ;
104 [label="gini = -0.0\nsamples = 1\nvalue = [0.0, 0.222, 0.0, 0.0, 0.0]"] ;
100 -> 104 ;
105 [label="gini = -0.0\nsamples = 1\nvalue = [0.0, 0.222, 0.0, 0.0, 0.0]"] ;
99 -> 105 ;
106 [label="x[312] <= -0.019\ngini = 0.768\nsamples = 1295\nvalue = [124.045, 269.211, 138.04, 295.8, 125.146]"] ;
96 -> 106 ;
107 [label="x[180] <= -0.032\ngini = 0.029\nsamples = 5\nvalue = [0.0, 0.443, 29.58, 0.0, 0.0]"] ;
106 -> 107 ;
108 [label="gini = 0.0\nsamples = 1\nvalue = [0.0, 0.222, 0.0, 0.0, 0.0]"] ;
107 -> 108 ;
109 [label="x[312] <= -0.057\ngini = 0.015\nsamples = 4\nvalue = [0.0, 0.222, 29.58, 0.0, 0.0]"] ;
107 -> 109 ;
110 [label="x[312] <= -0.057\ngini = 0.043\nsamples = 2\nvalue = [0.0, 0.222, 9.86, 0.0, 0.0]"] ;
109 -> 110 ;
111 [label="gini = 0.0\nsamples = 1\nvalue = [0.0, 0.0, 9.86, 0.0, 0.0]"] ;
110 -> 111 ;
112 [label="gini = -0.0\nsamples = 1\nvalue = [0.0, 0.222, 0.0, 0.0, 0.0]"] ;
110 -> 112 ;
113 [label="gini = 0.0\nsamples = 2\nvalue = [0.0, 0.0, 19.72, 0.0, 0.0]"] ;
109 -> 113 ;
114 [label="x[307] <= 0.045\ngini = 0.762\nsamples = 1290\nvalue = [124.045, 268.768, 108.46, 295.8, 125.146]"] ;
106 -> 114 ;
115 [label="x[316] <= 0.025\ngini = 0.754\nsamples = 1285\nvalue = [95.419, 268.325, 108.46, 295.8, 125.146]"] ;
114 -> 115 ;
116 [label="x[190] <= -0.045\ngini = 0.744\nsamples = 1269\nvalue = [66.794, 265.444, 108.46, 295.8, 125.146]"] ;
115 -> 116 ;
117 [label="x[190] <= -0.07\ngini = 0.335\nsamples = 39\nvalue = [0.0, 7.977, 29.58, 0.0, 0.0]"] ;
116 -> 117 ;
118 [label="x[179] <= -0.065\ngini = 0.0\nsamples = 20\nvalue = [0.0, 4.431, 0.0, 0.0, 0.0]"] ;
117 -> 118 ;
119 [label="gini = 0.0\nsamples = 1\nvalue = [0.0, 0.222, 0.0, 0.0, 0.0]"] ;
118 -> 119 ;
120 [label="gini = 0.0\nsamples = 19\nvalue = [0.0, 4.21, 0.0, 0.0, 0.0]"] ;
118 -> 120 ;
121 [label="x[53] <= 0.5\ngini = 0.191\nsamples = 19\nvalue = [0.0, 3.545, 29.58, 0.0, 0.0]"] ;
117 -> 121 ;
122 [label="x[64] <= 0.5\ngini = 0.151\nsamples = 15\nvalue = [0.0, 2.659, 29.58, 0.0, 0.0]"] ;
121 -> 122 ;
123 [label="x[311] <= -0.037\ngini = 0.118\nsamples = 12\nvalue = [0.0, 1.994, 29.58, 0.0, 0.0]"] ;
122 -> 123 ;
124 [label="gini = 0.0\nsamples = 2\nvalue = [0.0, 0.443, 0.0, 0.0, 0.0]"] ;
123 -> 124 ;
125 [label="x[203] <= -0.031\ngini = 0.095\nsamples = 10\nvalue = [0.0, 1.551, 29.58, 0.0, 0.0]"] ;
123 -> 125 ;
126 [label="gini = 0.0\nsamples = 1\nvalue = [0.0, 0.222, 0.0, 0.0, 0.0]"] ;
125 -> 126 ;
127 [label="x[201] <= -0.034\ngini = 0.082\nsamples = 9\nvalue = [0.0, 1.329, 29.58, 0.0, 0.0]"] ;
125 -> 127 ;
128 [label="gini = 0.0\nsamples = 1\nvalue = [0.0, 0.222, 0.0, 0.0, 0.0]"] ;
127 -> 128 ;
129 [label="x[202] <= -0.033\ngini = 0.07\nsamples = 8\nvalue = [0.0, 1.108, 29.58, 0.0, 0.0]"] ;
127 -> 129 ;
130 [label="gini = 0.0\nsamples = 1\nvalue = [0.0, 0.222, 0.0, 0.0, 0.0]"] ;
129 -> 130 ;
131 [label="x[171] <= -0.036\ngini = 0.056\nsamples = 7\nvalue = [0.0, 0.886, 29.58, 0.0, 0.0]"] ;
129 -> 131 ;
132 [label="gini = 0.0\nsamples = 1\nvalue = [0.0, 0.222, 0.0, 0.0, 0.0]"] ;
131 -> 132 ;
133 [label="x[206] <= -0.03\ngini = 0.043\nsamples = 6\nvalue = [0.0, 0.665, 29.58, 0.0, 0.0]"] ;
131 -> 133 ;
134 [label="gini = 0.0\nsamples = 1\nvalue = [0.0, 0.222, 0.0, 0.0, 0.0]"] ;
133 -> 134 ;
135 [label="x[190] <= -0.064\ngini = 0.029\nsamples = 5\nvalue = [0.0, 0.443, 29.58, 0.0, 0.0]"] ;
133 -> 135 ;
136 [label="gini = 0.0\nsamples = 2\nvalue = [0.0, 0.0, 19.72, 0.0, 0.0]"] ;
135 -> 136 ;
137 [label="x[190] <= -0.053\ngini = 0.082\nsamples = 3\nvalue = [0.0, 0.443, 9.86, 0.0, 0.0]"] ;
135 -> 137 ;
138 [label="gini = 0.0\nsamples = 2\nvalue = [0.0, 0.443, 0.0, 0.0, 0.0]"] ;
137 -> 138 ;
139 [label="gini = 0.0\nsamples = 1\nvalue = [0.0, 0.0, 9.86, 0.0, 0.0]"] ;
137 -> 139 ;
140 [label="gini = -0.0\nsamples = 3\nvalue = [0.0, 0.665, 0.0, 0.0, 0.0]"] ;
122 -> 140 ;
141 [label="gini = -0.0\nsamples = 4\nvalue = [0.0, 0.886, 0.0, 0.0, 0.0]"] ;
121 -> 141 ;
142 [label="x[296] <= -0.025\ngini = 0.735\nsamples = 1230\nvalue = [66.794, 257.468, 78.88, 295.8, 125.146]"] ;
116 -> 142 ;
143 [label="x[175] <= -0.003\ngini = 0.151\nsamples = 10\nvalue = [0.0, 1.773, 19.72, 0.0, 0.0]"] ;
142 -> 143 ;
144 [label="gini = 0.0\nsamples = 8\nvalue = [0.0, 1.773, 0.0, 0.0, 0.0]"] ;
143 -> 144 ;
145 [label="gini = 0.0\nsamples = 2\nvalue = [0.0, 0.0, 19.72, 0.0, 0.0]"] ;
143 -> 145 ;
146 [label="x[36] <= 0.5\ngini = 0.726\nsamples = 1220\nvalue = [66.794, 255.695, 59.16, 295.8, 125.146]"] ;
142 -> 146 ;
147 [label="x[186] <= -0.04\ngini = 0.713\nsamples = 1193\nvalue = [38.168, 250.599, 59.16, 286.258, 125.146]"] ;
146 -> 147 ;
148 [label="x[158] <= -0.054\ngini = 0.622\nsamples = 65\nvalue = [9.542, 13.294, 0.0, 0.0, 22.754]"] ;
147 -> 148 ;
149 [label="gini = 0.0\nsamples = 1\nvalue = [9.542, 0.0, 0.0, 0.0, 0.0]"] ;
148 -> 149 ;
150 [label="x[186] <= -0.078\ngini = 0.466\nsamples = 64\nvalue = [0.0, 13.294, 0.0, 0.0, 22.754]"] ;
148 -> 150 ;
151 [label="x[50] <= 0.5\ngini = 0.26\nsamples = 17\nvalue = [0.0, 3.102, 0.0, 0.0, 17.065]"] ;
150 -> 151 ;
152 [label="x[165] <= -0.065\ngini = 0.434\nsamples = 13\nvalue = [0.0, 2.659, 0.0, 0.0, 5.688]"] ;
151 -> 152 ;
153 [label="gini = 0.0\nsamples = 1\nvalue = [0.0, 0.0, 0.0, 0.0, 5.688]"] ;
152 -> 153 ;
154 [label="gini = -0.0\nsamples = 12\nvalue = [0.0, 2.659, 0.0, 0.0, 0.0]"] ;
152 -> 154 ;
155 [label="x[67] <= 0.5\ngini = 0.072\nsamples = 4\nvalue = [0.0, 0.443, 0.0, 0.0, 11.377]"] ;
151 -> 155 ;
156 [label="x[171] <= -0.04\ngini = 0.037\nsamples = 3\nvalue = [0.0, 0.222, 0.0, 0.0, 11.377]"] ;
155 -> 156 ;
157 [label="x[292] <= -0.0\ngini = 0.072\nsamples = 2\nvalue = [0.0, 0.222, 0.0, 0.0, 5.688]"] ;
156 -> 157 ;
158 [label="gini = 0.0\nsamples = 1\nvalue = [0.0, 0.222, 0.0, 0.0, 0.0]"] ;
157 -> 158 ;
159 [label="gini = 0.0\nsamples = 1\nvalue = [0.0, 0.0, 0.0, 0.0, 5.688]"] ;
157 -> 159 ;
160 [label="gini = 0.0\nsamples = 1\nvalue = [0.0, 0.0, 0.0, 0.0, 5.688]"] ;
156 -> 160 ;
161 [label="gini = -0.0\nsamples = 1\nvalue = [0.0, 0.222, 0.0, 0.0, 0.0]"] ;
155 -> 161 ;
162 [label="x[186] <= -0.043\ngini = 0.46\nsamples = 47\nvalue = [0.0, 10.192, 0.0, 0.0, 5.688]"] ;
150 -> 162 ;
163 [label="gini = -0.0\nsamples = 46\nvalue = [0.0, 10.192, 0.0, 0.0, 0.0]"] ;
162 -> 163 ;
164 [label="gini = 0.0\nsamples = 1\nvalue = [0.0, 0.0, 0.0, 0.0, 5.688]"] ;
162 -> 164 ;
165 [label="x[185] <= -0.085\ngini = 0.7\nsamples = 1128\nvalue = [28.626, 237.305, 59.16, 286.258, 102.392]"] ;
147 -> 165 ;
166 [label="x[306] <= 0.054\ngini = 0.561\nsamples = 19\nvalue = [9.542, 3.324, 0.0, 0.0, 17.065]"] ;
165 -> 166 ;
167 [label="x[185] <= -0.106\ngini = 0.273\nsamples = 18\nvalue = [0.0, 3.324, 0.0, 0.0, 17.065]"] ;
166 -> 167 ;
168 [label="x[319] <= 0.0\ngini = 0.0\nsamples = 10\nvalue = [0.0, 2.216, 0.0, 0.0, 0.0]"] ;
167 -> 168 ;
169 [label="gini = 0.0\nsamples = 9\nvalue = [0.0, 1.994, 0.0, 0.0, 0.0]"] ;
168 -> 169 ;
170 [label="gini = 0.0\nsamples = 1\nvalue = [0.0, 0.222, 0.0, 0.0, 0.0]"] ;
168 -> 170 ;
171 [label="x[50] <= 0.5\ngini = 0.114\nsamples = 8\nvalue = [0.0, 1.108, 0.0, 0.0, 17.065]"] ;
167 -> 171 ;
172 [label="x[174] <= -0.081\ngini = 0.072\nsamples = 6\nvalue = [0.0, 0.665, 0.0, 0.0, 17.065]"] ;
171 -> 172 ;
173 [label="gini = 0.0\nsamples = 1\nvalue = [0.0, 0.222, 0.0, 0.0, 0.0]"] ;
172 -> 173 ;
174 [label="x[169] <= -0.03\ngini = 0.049\nsamples = 5\nvalue = [0.0, 0.443, 0.0, 0.0, 17.065]"] ;
172 -> 174 ;
175 [label="gini = 0.0\nsamples = 1\nvalue = [0.0, 0.222, 0.0, 0.0, 0.0]"] ;
174 -> 175 ;
176 [label="x[203] <= -0.045\ngini = 0.025\nsamples = 4\nvalue = [0.0, 0.222, 0.0, 0.0, 17.065]"] ;
174 -> 176 ;
177 [label="gini = 0.0\nsamples = 1\nvalue = [0.0, 0.222, 0.0, 0.0, 0.0]"] ;
176 -> 177 ;
178 [label="gini = 0.0\nsamples = 3\nvalue = [0.0, 0.0, 0.0, 0.0, 17.065]"] ;
176 -> 178 ;
179 [label="x[171] <= -0.057\ngini = 0.0\nsamples = 2\nvalue = [0.0, 0.443, 0.0, 0.0, 0.0]"] ;
171 -> 179 ;
180 [label="gini = 0.0\nsamples = 1\nvalue = [0.0, 0.222, 0.0, 0.0, 0.0]"] ;
179 -> 180 ;
181 [label="gini = 0.0\nsamples = 1\nvalue = [0.0, 0.222, 0.0, 0.0, 0.0]"] ;
179 -> 181 ;
182 [label="gini = -0.0\nsamples = 1\nvalue = [9.542, 0.0, 0.0, 0.0, 0.0]"] ;
166 -> 182 ;
183 [label="x[176] <= -0.138\ngini = 0.684\nsamples = 1109\nvalue = [19.084, 233.981, 59.16, 286.258, 85.327]"] ;
165 -> 183 ;
184 [label="gini = 0.0\nsamples = 1\nvalue = [9.542, 0.0, 0.0, 0.0, 0.0]"] ;
183 -> 184 ;
185 [label="x[294] <= -0.043\ngini = 0.675\nsamples = 1108\nvalue = [9.542, 233.981, 59.16, 286.258, 85.327]"] ;
183 -> 185 ;
186 [label="gini = 0.0\nsamples = 1\nvalue = [0.0, 0.0, 9.86, 0.0, 0.0]"] ;
185 -> 186 ;
187 [label="x[306] <= -0.057\ngini = 0.668\nsamples = 1107\nvalue = [9.542, 233.981, 49.3, 286.258, 85.327]"] ;
185 -> 187 ;
188 [label="gini = 0.0\nsamples = 1\nvalue = [0.0, 0.0, 9.86, 0.0, 0.0]"] ;
187 -> 188 ;
189 [label="x[324] <= -0.009\ngini = 0.66\nsamples = 1106\nvalue = [9.542, 233.981, 39.44, 286.258, 85.327]"] ;
187 -> 189 ;
190 [label="gini = 0.0\nsamples = 1\nvalue = [0.0, 0.0, 9.86, 0.0, 0.0]"] ;
189 -> 190 ;
191 [label="x[307] <= 0.004\ngini = 0.651\nsamples = 1105\nvalue = [9.542, 233.981, 29.58, 286.258, 85.327]"] ;
189 -> 191 ;
192 [label="x[183] <= -0.003\ngini = 0.642\nsamples = 1104\nvalue = [9.542, 233.981, 19.72, 286.258, 85.327]"] ;
191 -> 192 ;
193 [label="x[75] <= 0.5\ngini = 0.082\nsamples = 3\nvalue = [0.0, 0.443, 9.86, 0.0, 0.0]"] ;
192 -> 193 ;
194 [label="gini = -0.0\nsamples = 2\nvalue = [0.0, 0.443, 0.0, 0.0, 0.0]"] ;
193 -> 194 ;
195 [label="gini = 0.0\nsamples = 1\nvalue = [0.0, 0.0, 9.86, 0.0, 0.0]"] ;
193 -> 195 ;
196 [label="x[184] <= 0.015\ngini = 0.631\nsamples = 1101\nvalue = [9.542, 233.538, 9.86, 286.258, 85.327]"] ;
192 -> 196 ;
197 [label="x[313] <= -0.0\ngini = 0.619\nsamples = 1095\nvalue = [9.542, 232.43, 0.0, 286.258, 85.327]"] ;
196 -> 197 ;
198 [label="x[192] <= -0.02\ngini = 0.533\nsamples = 7\nvalue = [9.542, 1.108, 0.0, 0.0, 5.688]"] ;
197 -> 198 ;
199 [label="x[313] <= -0.003\ngini = 0.273\nsamples = 6\nvalue = [0.0, 1.108, 0.0, 0.0, 5.688]"] ;
198 -> 199 ;
200 [label="x[306] <= -0.017\ngini = 0.072\nsamples = 2\nvalue = [0.0, 0.222, 0.0, 0.0, 5.688]"] ;
199 -> 200 ;
201 [label="gini = 0.0\nsamples = 1\nvalue = [0.0, 0.222, 0.0, 0.0, 0.0]"] ;
200 -> 201 ;
202 [label="gini = 0.0\nsamples = 1\nvalue = [0.0, 0.0, 0.0, 0.0, 5.688]"] ;
200 -> 202 ;
203 [label="x[294] <= -0.0\ngini = 0.0\nsamples = 4\nvalue = [0.0, 0.886, 0.0, 0.0, 0.0]"] ;
199 -> 203 ;
204 [label="gini = 0.0\nsamples = 1\nvalue = [0.0, 0.222, 0.0, 0.0, 0.0]"] ;
203 -> 204 ;
205 [label="gini = 0.0\nsamples = 3\nvalue = [0.0, 0.665, 0.0, 0.0, 0.0]"] ;
203 -> 205 ;
206 [label="gini = 0.0\nsamples = 1\nvalue = [9.542, 0.0, 0.0, 0.0, 0.0]"] ;
198 -> 206 ;
207 [label="x[295] <= -0.008\ngini = 0.602\nsamples = 1088\nvalue = [0.0, 231.322, 0.0, 286.258, 79.638]"] ;
197 -> 207 ;
208 [label="x[295] <= -0.012\ngini = 0.42\nsamples = 24\nvalue = [0.0, 4.875, 0.0, 0.0, 11.377]"] ;
207 -> 208 ;
209 [label="gini = -0.0\nsamples = 22\nvalue = [0.0, 4.875, 0.0, 0.0, 0.0]"] ;
208 -> 209 ;
210 [label="gini = 0.0\nsamples = 2\nvalue = [0.0, 0.0, 0.0, 0.0, 11.377]"] ;
208 -> 210 ;
211 [label="x[172] <= -0.038\ngini = 0.591\nsamples = 1064\nvalue = [0.0, 226.448, 0.0, 286.258, 68.262]"] ;
207 -> 211 ;
212 [label="x[172] <= -0.052\ngini = 0.409\nsamples = 65\nvalue = [0.0, 14.181, 0.0, 0.0, 5.688]"] ;
211 -> 212 ;
213 [label="gini = -0.0\nsamples = 50\nvalue = [0.0, 11.079, 0.0, 0.0, 0.0]"] ;
212 -> 213 ;
214 [label="x[172] <= -0.052\ngini = 0.457\nsamples = 15\nvalue = [0.0, 3.102, 0.0, 0.0, 5.688]"] ;
212 -> 214 ;
215 [label="gini = 0.0\nsamples = 1\nvalue = [0.0, 0.0, 0.0, 0.0, 5.688]"] ;
214 -> 215 ;
216 [label="gini = -0.0\nsamples = 14\nvalue = [0.0, 3.102, 0.0, 0.0, 0.0]"] ;
214 -> 216 ;
217 [label="x[171] <= -0.055\ngini = 0.584\nsamples = 999\nvalue = [0.0, 212.267, 0.0, 286.258, 62.573]"] ;
211 -> 217 ;
218 [label="gini = 0.0\nsamples = 54\nvalue = [0.0, 11.965, 0.0, 0.0, 0.0]"] ;
217 -> 218 ;
219 [label="x[292] <= -0.0\ngini = 0.582\nsamples = 945\nvalue = [0.0, 200.302, 0.0, 286.258, 62.573]"] ;
217 -> 219 ;
220 [label="x[292] <= -0.0\ngini = 0.098\nsamples = 10\nvalue = [0.0, 1.551, 0.0, 28.626, 0.0]"] ;
219 -> 220 ;
221 [label="gini = 0.0\nsamples = 4\nvalue = [0.0, 0.886, 0.0, 0.0, 0.0]"] ;
220 -> 221 ;
222 [label="x[185] <= -0.018\ngini = 0.044\nsamples = 6\nvalue = [0.0, 0.665, 0.0, 28.626, 0.0]"] ;
220 -> 222 ;
223 [label="gini = 0.0\nsamples = 1\nvalue = [0.0, 0.222, 0.0, 0.0, 0.0]"] ;
222 -> 223 ;
224 [label="x[308] <= -0.0\ngini = 0.03\nsamples = 5\nvalue = [0.0, 0.443, 0.0, 28.626, 0.0]"] ;
222 -> 224 ;
225 [label="gini = 0.0\nsamples = 1\nvalue = [0.0, 0.222, 0.0, 0.0, 0.0]"] ;
224 -> 225 ;
226 [label="x[292] <= -0.0\ngini = 0.015\nsamples = 4\nvalue = [0.0, 0.222, 0.0, 28.626, 0.0]"] ;
224 -> 226 ;
227 [label="x[282] <= -0.0\ngini = 0.044\nsamples = 2\nvalue = [0.0, 0.222, 0.0, 9.542, 0.0]"] ;
226 -> 227 ;
228 [label="gini = 0.0\nsamples = 1\nvalue = [0.0, 0.0, 0.0, 9.542, 0.0]"] ;
227 -> 228 ;
229 [label="gini = -0.0\nsamples = 1\nvalue = [0.0, 0.222, 0.0, 0.0, 0.0]"] ;
227 -> 229 ;
230 [label="gini = -0.0\nsamples = 2\nvalue = [0.0, 0.0, 0.0, 19.084, 0.0]"] ;
226 -> 230 ;
231 [label="x[48] <= 0.5\ngini = 0.592\nsamples = 935\nvalue = [0.0, 198.751, 0.0, 257.632, 62.573]"] ;
219 -> 231 ;
232 [label="x[192] <= -0.042\ngini = 0.591\nsamples = 882\nvalue = [0.0, 187.008, 0.0, 257.632, 62.573]"] ;
231 -> 232 ;
233 [label="gini = 0.0\nsamples = 49\nvalue = [0.0, 10.857, 0.0, 0.0, 0.0]"] ;
232 -> 233 ;
234 [label="x[193] <= 0.016\ngini = 0.589\nsamples = 833\nvalue = [0.0, 176.151, 0.0, 257.632, 62.573]"] ;
232 -> 234 ;
235 [label="x[50] <= 0.5\ngini = 0.582\nsamples = 832\nvalue = [0.0, 176.151, 0.0, 257.632, 56.885]"] ;
234 -> 235 ;
236 [label="x[196] <= -0.032\ngini = 0.579\nsamples = 790\nvalue = [0.0, 166.844, 0.0, 257.632, 56.885]"] ;
235 -> 236 ;
237 [label="gini = 0.0\nsamples = 42\nvalue = [0.0, 9.306, 0.0, 0.0, 0.0]"] ;
236 -> 237 ;
238 [label="x[194] <= -0.061\ngini = 0.576\nsamples = 748\nvalue = [0.0, 157.538, 0.0, 257.632, 56.885]"] ;
236 -> 238 ;
239 [label="gini = 0.0\nsamples = 39\nvalue = [0.0, 8.641, 0.0, 0.0, 0.0]"] ;
238 -> 239 ;
240 [label="x[315] <= -0.007\ngini = 0.573\nsamples = 709\nvalue = [0.0, 148.897, 0.0, 257.632, 56.885]"] ;
238 -> 240 ;
241 [label="x[315] <= -0.01\ngini = 0.072\nsamples = 2\nvalue = [0.0, 0.222, 0.0, 0.0, 5.688]"] ;
240 -> 241 ;
242 [label="gini = 0.0\nsamples = 1\nvalue = [0.0, 0.222, 0.0, 0.0, 0.0]"] ;
241 -> 242 ;
243 [label="gini = 0.0\nsamples = 1\nvalue = [0.0, 0.0, 0.0, 0.0, 5.688]"] ;
241 -> 243 ;
244 [label="x[293] <= 0.004\ngini = 0.565\nsamples = 707\nvalue = [0.0, 148.676, 0.0, 257.632, 51.196]"] ;
240 -> 244 ;
245 [label="x[175] <= -0.007\ngini = 0.556\nsamples = 705\nvalue = [0.0, 148.454, 0.0, 257.632, 45.508]"] ;
244 -> 245 ;
246 [label="x[175] <= -0.104\ngini = 0.486\nsamples = 37\nvalue = [0.0, 7.977, 0.0, 0.0, 5.688]"] ;
245 -> 246 ;
247 [label="x[175] <= -0.107\ngini = 0.337\nsamples = 8\nvalue = [0.0, 1.551, 0.0, 0.0, 5.688]"] ;
246 -> 247 ;
248 [label="x[40] <= 0.5\ngini = 0.0\nsamples = 7\nvalue = [0.0, 1.551, 0.0, 0.0, 0.0]"] ;
247 -> 248 ;
249 [label="gini = 0.0\nsamples = 6\nvalue = [0.0, 1.329, 0.0, 0.0, 0.0]"] ;
248 -> 249 ;
250 [label="gini = 0.0\nsamples = 1\nvalue = [0.0, 0.222, 0.0, 0.0, 0.0]"] ;
248 -> 250 ;
251 [label="gini = 0.0\nsamples = 1\nvalue = [0.0, 0.0, 0.0, 0.0, 5.688]"] ;
247 -> 251 ;
252 [label="gini = -0.0\nsamples = 29\nvalue = [0.0, 6.426, 0.0, 0.0, 0.0]"] ;
246 -> 252 ;
253 [label="x[187] <= -0.114\ngini = 0.543\nsamples = 668\nvalue = [0.0, 140.477, 0.0, 257.632, 39.819]"] ;
245 -> 253 ;
254 [label="x[187] <= -0.121\ngini = 0.187\nsamples = 4\nvalue = [0.0, 0.665, 0.0, 0.0, 5.688]"] ;
253 -> 254 ;
255 [label="gini = 0.0\nsamples = 3\nvalue = [0.0, 0.665, 0.0, 0.0, 0.0]"] ;
254 -> 255 ;
256 [label="gini = 0.0\nsamples = 1\nvalue = [0.0, 0.0, 0.0, 0.0, 5.688]"] ;
254 -> 256 ;
257 [label="x[86] <= 0.5\ngini = 0.532\nsamples = 664\nvalue = [0.0, 139.813, 0.0, 257.632, 34.131]"] ;
253 -> 257 ;
258 [label="x[314] <= 0.001\ngini = 0.518\nsamples = 640\nvalue = [0.0, 134.716, 0.0, 257.632, 28.442]"] ;
257 -> 258 ;
259 [label="x[55] <= 0.5\ngini = 0.505\nsamples = 632\nvalue = [0.0, 133.165, 0.0, 257.632, 22.754]"] ;
258 -> 259 ;
260 [label="x[197] <= -0.024\ngini = 0.5\nsamples = 604\nvalue = [0.0, 126.961, 0.0, 257.632, 22.754]"] ;
259 -> 260 ;
261 [label="gini = 0.0\nsamples = 24\nvalue = [0.0, 5.318, 0.0, 0.0, 0.0]"] ;
260 -> 261 ;
262 [label="x[46] <= 0.5\ngini = 0.495\nsamples = 580\nvalue = [0.0, 121.644, 0.0, 257.632, 22.754]"] ;
260 -> 262 ;
263 [label="x[196] <= 0.0\ngini = 0.489\nsamples = 558\nvalue = [0.0, 116.769, 0.0, 257.632, 22.754]"] ;
262 -> 263 ;
264 [label="x[84] <= 0.5\ngini = 0.484\nsamples = 536\nvalue = [0.0, 111.894, 0.0, 257.632, 22.754]"] ;
263 -> 264 ;
265 [label="x[158] <= -0.01\ngini = 0.478\nsamples = 515\nvalue = [0.0, 107.241, 0.0, 257.632, 22.754]"] ;
264 -> 265 ;
266 [label="gini = 0.0\nsamples = 20\nvalue = [0.0, 4.431, 0.0, 0.0, 0.0]"] ;
265 -> 266 ;
267 [label="x[41] <= 0.5\ngini = 0.472\nsamples = 495\nvalue = [0.0, 102.81, 0.0, 257.632, 22.754]"] ;
265 -> 267 ;
268 [label="x[62] <= 0.5\ngini = 0.467\nsamples = 478\nvalue = [0.0, 99.043, 0.0, 257.632, 22.754]"] ;
267 -> 268 ;
269 [label="x[186] <= 0.001\ngini = 0.462\nsamples = 462\nvalue = [0.0, 95.498, 0.0, 257.632, 22.754]"] ;
268 -> 269 ;
270 [label="x[40] <= 0.5\ngini = 0.457\nsamples = 446\nvalue = [0.0, 91.953, 0.0, 257.632, 22.754]"] ;
269 -> 270 ;
271 [label="x[195] <= 0.001\ngini = 0.451\nsamples = 430\nvalue = [0.0, 88.408, 0.0, 257.632, 22.754]"] ;
270 -> 271 ;
272 [label="x[64] <= 0.5\ngini = 0.445\nsamples = 415\nvalue = [0.0, 85.084, 0.0, 257.632, 22.754]"] ;
271 -> 272 ;
273 [label="x[291] <= -0.0\ngini = 0.42\nsamples = 373\nvalue = [0.0, 76.221, 0.0, 248.09, 17.065]"] ;
272 -> 273 ;
274 [label="gini = 0.0\nsamples = 13\nvalue = [0.0, 2.88, 0.0, 0.0, 0.0]"] ;
273 -> 274 ;
275 [label="x[160] <= -0.024\ngini = 0.413\nsamples = 360\nvalue = [0.0, 73.341, 0.0, 248.09, 17.065]"] ;
273 -> 275 ;
276 [label="gini = 0.0\nsamples = 13\nvalue = [0.0, 2.88, 0.0, 0.0, 0.0]"] ;
275 -> 276 ;
277 [label="x[82] <= 0.5\ngini = 0.407\nsamples = 347\nvalue = [0.0, 70.46, 0.0, 248.09, 17.065]"] ;
275 -> 277 ;
278 [label="x[67] <= 0.5\ngini = 0.401\nsamples = 335\nvalue = [0.0, 67.801, 0.0, 248.09, 17.065]"] ;
277 -> 278 ;
279 [label="x[174] <= -0.04\ngini = 0.395\nsamples = 324\nvalue = [0.0, 65.364, 0.0, 248.09, 17.065]"] ;
278 -> 279 ;
280 [label="x[191] <= -0.067\ngini = 0.633\nsamples = 23\nvalue = [0.0, 4.653, 0.0, 9.542, 5.688]"] ;
279 -> 280 ;
281 [label="gini = 0.0\nsamples = 1\nvalue = [0.0, 0.0, 0.0, 9.542, 0.0]"] ;
280 -> 281 ;
282 [label="x[174] <= -0.042\ngini = 0.495\nsamples = 22\nvalue = [0.0, 4.653, 0.0, 0.0, 5.688]"] ;
280 -> 282 ;
283 [label="gini = -0.0\nsamples = 20\nvalue = [0.0, 4.431, 0.0, 0.0, 0.0]"] ;
282 -> 283 ;
284 [label="x[174] <= -0.041\ngini = 0.072\nsamples = 2\nvalue = [0.0, 0.222, 0.0, 0.0, 5.688]"] ;
282 -> 284 ;
285 [label="gini = 0.0\nsamples = 1\nvalue = [0.0, 0.0, 0.0, 0.0, 5.688]"] ;
284 -> 285 ;
286 [label="gini = 0.0\nsamples = 1\nvalue = [0.0, 0.222, 0.0, 0.0, 0.0]"] ;
284 -> 286 ;
287 [label="x[70] <= 0.5\ngini = 0.371\nsamples = 301\nvalue = [0.0, 60.711, 0.0, 238.548, 11.377]"] ;
279 -> 287 ;
288 [label="x[194] <= -0.027\ngini = 0.359\nsamples = 283\nvalue = [0.0, 56.723, 0.0, 238.548, 11.377]"] ;
287 -> 288 ;
289 [label="x[327] <= 0.005\ngini = 0.586\nsamples = 13\nvalue = [0.0, 2.437, 0.0, 9.542, 5.688]"] ;
288 -> 289 ;
290 [label="x[315] <= 0.0\ngini = 0.42\nsamples = 12\nvalue = [0.0, 2.437, 0.0, 0.0, 5.688]"] ;
289 -> 290 ;
291 [label="x[315] <= 0.0\ngini = 0.233\nsamples = 5\nvalue = [0.0, 0.886, 0.0, 0.0, 5.688]"] ;
290 -> 291 ;
292 [label="gini = 0.0\nsamples = 4\nvalue = [0.0, 0.886, 0.0, 0.0, 0.0]"] ;
291 -> 292 ;
293 [label="gini = 0.0\nsamples = 1\nvalue = [0.0, 0.0, 0.0, 0.0, 5.688]"] ;
291 -> 293 ;
294 [label="gini = -0.0\nsamples = 7\nvalue = [0.0, 1.551, 0.0, 0.0, 0.0]"] ;
290 -> 294 ;
295 [label="gini = 0.0\nsamples = 1\nvalue = [0.0, 0.0, 0.0, 9.542, 0.0]"] ;
289 -> 295 ;
296 [label="x[316] <= 0.001\ngini = 0.336\nsamples = 270\nvalue = [0.0, 54.285, 0.0, 229.006, 5.688]"] ;
288 -> 296 ;
297 [label="x[193] <= -0.075\ngini = 0.33\nsamples = 261\nvalue = [0.0, 52.291, 0.0, 229.006, 5.688]"] ;
296 -> 297 ;
298 [label="gini = 0.0\nsamples = 9\nvalue = [0.0, 1.994, 0.0, 0.0, 0.0]"] ;
297 -> 298 ;
299 [label="x[83] <= 0.5\ngini = 0.323\nsamples = 252\nvalue = [0.0, 50.297, 0.0, 229.006, 5.688]"] ;
297 -> 299 ;
300 [label="x[45] <= 0.5\ngini = 0.316\nsamples = 244\nvalue = [0.0, 48.524, 0.0, 229.006, 5.688]"] ;
299 -> 300 ;
301 [label="x[165] <= -0.065\ngini = 0.31\nsamples = 236\nvalue = [0.0, 46.752, 0.0, 229.006, 5.688]"] ;
300 -> 301 ;
302 [label="gini = 0.0\nsamples = 8\nvalue = [0.0, 1.773, 0.0, 0.0, 0.0]"] ;
301 -> 302 ;
303 [label="x[206] <= -0.026\ngini = 0.303\nsamples = 228\nvalue = [0.0, 44.979, 0.0, 229.006, 5.688]"] ;
301 -> 303 ;
304 [label="gini = 0.0\nsamples = 8\nvalue = [0.0, 1.773, 0.0, 0.0, 0.0]"] ;
303 -> 304 ;
305 [label="x[159] <= -0.03\ngini = 0.296\nsamples = 220\nvalue = [0.0, 43.207, 0.0, 229.006, 5.688]"] ;
303 -> 305 ;
306 [label="gini = 0.0\nsamples = 7\nvalue = [0.0, 1.551, 0.0, 0.0, 0.0]"] ;
305 -> 306 ;
307 [label="x[307] <= -0.0\ngini = 0.29\nsamples = 213\nvalue = [0.0, 41.656, 0.0, 229.006, 5.688]"] ;
305 -> 307 ;
308 [label="gini = 0.0\nsamples = 7\nvalue = [0.0, 1.551, 0.0, 0.0, 0.0]"] ;
307 -> 308 ;
309 [label="x[294] <= -0.008\ngini = 0.284\nsamples = 206\nvalue = [0.0, 40.105, 0.0, 229.006, 5.688]"] ;
307 -> 309 ;
310 [label="gini = 0.0\nsamples = 6\nvalue = [0.0, 1.329, 0.0, 0.0, 0.0]"] ;
309 -> 310 ;
311 [label="x[164] <= -0.013\ngini = 0.278\nsamples = 200\nvalue = [0.0, 38.775, 0.0, 229.006, 5.688]"] ;
309 -> 311 ;
312 [label="gini = 0.0\nsamples = 6\nvalue = [0.0, 1.329, 0.0, 0.0, 0.0]"] ;
311 -> 312 ;
313 [label="x[58] <= 0.5\ngini = 0.273\nsamples = 194\nvalue = [0.0, 37.446, 0.0, 229.006, 5.688]"] ;
311 -> 313 ;
314 [label="x[294] <= 0.0\ngini = 0.268\nsamples = 189\nvalue = [0.0, 36.338, 0.0, 229.006, 5.688]"] ;
313 -> 314 ;
315 [label="x[184] <= -0.001\ngini = 0.263\nsamples = 184\nvalue = [0.0, 35.23, 0.0, 229.006, 5.688]"] ;
314 -> 315 ;
316 [label="gini = 0.0\nsamples = 5\nvalue = [0.0, 1.108, 0.0, 0.0, 0.0]"] ;
315 -> 316 ;
317 [label="x[202] <= -0.022\ngini = 0.258\nsamples = 179\nvalue = [0.0, 34.122, 0.0, 229.006, 5.688]"] ;
315 -> 317 ;
318 [label="gini = 0.0\nsamples = 4\nvalue = [0.0, 0.886, 0.0, 0.0, 0.0]"] ;
317 -> 318 ;
319 [label="x[155] <= -0.032\ngini = 0.254\nsamples = 175\nvalue = [0.0, 33.236, 0.0, 229.006, 5.688]"] ;
317 -> 319 ;
320 [label="gini = 0.0\nsamples = 4\nvalue = [0.0, 0.886, 0.0, 0.0, 0.0]"] ;
319 -> 320 ;
321 [label="x[172] <= 0.006\ngini = 0.249\nsamples = 171\nvalue = [0.0, 32.35, 0.0, 229.006, 5.688]"] ;
319 -> 321 ;
322 [label="x[175] <= 0.002\ngini = 0.245\nsamples = 167\nvalue = [0.0, 31.463, 0.0, 229.006, 5.688]"] ;
321 -> 322 ;
323 [label="x[291] <= 0.0\ngini = 0.242\nsamples = 164\nvalue = [0.0, 30.799, 0.0, 229.006, 5.688]"] ;
322 -> 323 ;
324 [label="x[177] <= -0.088\ngini = 0.239\nsamples = 161\nvalue = [0.0, 30.134, 0.0, 229.006, 5.688]"] ;
323 -> 324 ;
325 [label="gini = 0.0\nsamples = 3\nvalue = [0.0, 0.665, 0.0, 0.0, 0.0]"] ;
324 -> 325 ;
326 [label="x[174] <= 0.001\ngini = 0.236\nsamples = 158\nvalue = [0.0, 29.469, 0.0, 229.006, 5.688]"] ;
324 -> 326 ;
327 [label="x[35] <= 0.5\ngini = 0.232\nsamples = 155\nvalue = [0.0, 28.804, 0.0, 229.006, 5.688]"] ;
326 -> 327 ;
328 [label="x[197] <= 0.006\ngini = 0.229\nsamples = 152\nvalue = [0.0, 28.14, 0.0, 229.006, 5.688]"] ;
327 -> 328 ;
329 [label="x[187] <= -0.047\ngini = 0.226\nsamples = 149\nvalue = [0.0, 27.475, 0.0, 229.006, 5.688]"] ;
328 -> 329 ;
330 [label="gini = 0.0\nsamples = 3\nvalue = [0.0, 0.665, 0.0, 0.0, 0.0]"] ;
329 -> 330 ;
331 [label="x[200] <= -0.064\ngini = 0.222\nsamples = 146\nvalue = [0.0, 26.81, 0.0, 229.006, 5.688]"] ;
329 -> 331 ;
332 [label="gini = 0.0\nsamples = 3\nvalue = [0.0, 0.665, 0.0, 0.0, 0.0]"] ;
331 -> 332 ;
333 [label="x[316] <= -0.0\ngini = 0.219\nsamples = 143\nvalue = [0.0, 26.146, 0.0, 229.006, 5.688]"] ;
331 -> 333 ;
334 [label="gini = 0.0\nsamples = 3\nvalue = [0.0, 0.665, 0.0, 0.0, 0.0]"] ;
333 -> 334 ;
335 [label="x[173] <= -0.045\ngini = 0.215\nsamples = 140\nvalue = [0.0, 25.481, 0.0, 229.006, 5.688]"] ;
333 -> 335 ;
336 [label="x[193] <= -0.073\ngini = 0.395\nsamples = 17\nvalue = [0.0, 3.545, 0.0, 9.542, 0.0]"] ;
335 -> 336 ;
337 [label="gini = 0.0\nsamples = 1\nvalue = [0.0, 0.0, 0.0, 9.542, 0.0]"] ;
336 -> 337 ;
338 [label="gini = -0.0\nsamples = 16\nvalue = [0.0, 3.545, 0.0, 0.0, 0.0]"] ;
336 -> 338 ;
339 [label="x[193] <= -0.034\ngini = 0.203\nsamples = 123\nvalue = [0.0, 21.936, 0.0, 219.465, 5.688]"] ;
335 -> 339 ;
340 [label="gini = 0.0\nsamples = 9\nvalue = [0.0, 1.994, 0.0, 0.0, 0.0]"] ;
339 -> 340 ;
341 [label="x[182] <= -0.034\ngini = 0.191\nsamples = 114\nvalue = [0.0, 19.942, 0.0, 219.465, 5.688]"] ;
339 -> 341 ;
342 [label="gini = 0.0\nsamples = 2\nvalue = [0.0, 0.443, 0.0, 0.0, 0.0]"] ;
341 -> 342 ;
343 [label="x[199] <= -0.025\ngini = 0.188\nsamples = 112\nvalue = [0.0, 19.498, 0.0, 219.465, 5.688]"] ;
341 -> 343 ;
344 [label="gini = 0.0\nsamples = 2\nvalue = [0.0, 0.443, 0.0, 0.0, 0.0]"] ;
343 -> 344 ;
345 [label="x[305] <= -0.0\ngini = 0.186\nsamples = 110\nvalue = [0.0, 19.055, 0.0, 219.465, 5.688]"] ;
343 -> 345 ;
346 [label="gini = 0.0\nsamples = 2\nvalue = [0.0, 0.443, 0.0, 0.0, 0.0]"] ;
345 -> 346 ;
347 [label="x[186] <= -0.021\ngini = 0.183\nsamples = 108\nvalue = [0.0, 18.612, 0.0, 219.465, 5.688]"] ;
345 -> 347 ;
348 [label="gini = 0.0\nsamples = 2\nvalue = [0.0, 0.443, 0.0, 0.0, 0.0]"] ;
347 -> 348 ;
349 [label="x[163] <= -0.059\ngini = 0.18\nsamples = 106\nvalue = [0.0, 18.169, 0.0, 219.465, 5.688]"] ;
347 -> 349 ;
350 [label="gini = 0.0\nsamples = 2\nvalue = [0.0, 0.443, 0.0, 0.0, 0.0]"] ;
349 -> 350 ;
351 [label="x[317] <= 0.021\ngini = 0.178\nsamples = 104\nvalue = [0.0, 17.726, 0.0, 219.465, 5.688]"] ;
349 -> 351 ;
352 [label="x[327] <= 0.0\ngini = 0.175\nsamples = 102\nvalue = [0.0, 17.283, 0.0, 219.465, 5.688]"] ;
351 -> 352 ;
353 [label="x[208] <= 0.009\ngini = 0.172\nsamples = 100\nvalue = [0.0, 16.84, 0.0, 219.465, 5.688]"] ;
352 -> 353 ;
354 [label="x[189] <= 0.002\ngini = 0.169\nsamples = 98\nvalue = [0.0, 16.396, 0.0, 219.465, 5.688]"] ;
353 -> 354 ;
355 [label="x[194] <= 0.002\ngini = 0.167\nsamples = 96\nvalue = [0.0, 15.953, 0.0, 219.465, 5.688]"] ;
354 -> 355 ;
356 [label="x[173] <= 0.014\ngini = 0.164\nsamples = 94\nvalue = [0.0, 15.51, 0.0, 219.465, 5.688]"] ;
355 -> 356 ;
357 [label="x[294] <= -0.0\ngini = 0.161\nsamples = 92\nvalue = [0.0, 15.067, 0.0, 219.465, 5.688]"] ;
356 -> 357 ;
358 [label="gini = 0.0\nsamples = 3\nvalue = [0.0, 0.0, 0.0, 28.626, 0.0]"] ;
357 -> 358 ;
359 [label="x[317] <= -0.001\ngini = 0.181\nsamples = 89\nvalue = [0.0, 15.067, 0.0, 190.839, 5.688]"] ;
357 -> 359 ;
360 [label="gini = 0.0\nsamples = 1\nvalue = [0.0, 0.222, 0.0, 0.0, 0.0]"] ;
359 -> 360 ;
361 [label="x[198] <= -0.066\ngini = 0.179\nsamples = 88\nvalue = [0.0, 14.845, 0.0, 190.839, 5.688]"] ;
359 -> 361 ;
362 [label="gini = 0.0\nsamples = 1\nvalue = [0.0, 0.222, 0.0, 0.0, 0.0]"] ;
361 -> 362 ;
363 [label="x[201] <= -0.032\ngini = 0.178\nsamples = 87\nvalue = [0.0, 14.624, 0.0, 190.839, 5.688]"] ;
361 -> 363 ;
364 [label="gini = 0.0\nsamples = 1\nvalue = [0.0, 0.222, 0.0, 0.0, 0.0]"] ;
363 -> 364 ;
365 [label="x[195] <= -0.088\ngini = 0.176\nsamples = 86\nvalue = [0.0, 14.402, 0.0, 190.839, 5.688]"] ;
363 -> 365 ;
366 [label="gini = 0.0\nsamples = 1\nvalue = [0.0, 0.222, 0.0, 0.0, 0.0]"] ;
365 -> 366 ;
367 [label="x[190] <= -0.022\ngini = 0.174\nsamples = 85\nvalue = [0.0, 14.181, 0.0, 190.839, 5.688]"] ;
365 -> 367 ;
368 [label="gini = 0.0\nsamples = 1\nvalue = [0.0, 0.222, 0.0, 0.0, 0.0]"] ;
367 -> 368 ;
369 [label="x[186] <= -0.001\ngini = 0.173\nsamples = 84\nvalue = [0.0, 13.959, 0.0, 190.839, 5.688]"] ;
367 -> 369 ;
370 [label="gini = 0.0\nsamples = 1\nvalue = [0.0, 0.222, 0.0, 0.0, 0.0]"] ;
369 -> 370 ;
371 [label="x[314] <= -0.0\ngini = 0.171\nsamples = 83\nvalue = [0.0, 13.738, 0.0, 190.839, 5.688]"] ;
369 -> 371 ;
372 [label="gini = 0.0\nsamples = 1\nvalue = [0.0, 0.222, 0.0, 0.0, 0.0]"] ;
371 -> 372 ;
373 [label="x[154] <= -0.031\ngini = 0.17\nsamples = 82\nvalue = [0.0, 13.516, 0.0, 190.839, 5.688]"] ;
371 -> 373 ;
374 [label="gini = 0.0\nsamples = 1\nvalue = [0.0, 0.222, 0.0, 0.0, 0.0]"] ;
373 -> 374 ;
375 [label="x[173] <= -0.011\ngini = 0.168\nsamples = 81\nvalue = [0.0, 13.294, 0.0, 190.839, 5.688]"] ;
373 -> 375 ;
376 [label="gini = 0.0\nsamples = 1\nvalue = [0.0, 0.222, 0.0, 0.0, 0.0]"] ;
375 -> 376 ;
377 [label="x[305] <= 0.0\ngini = 0.166\nsamples = 80\nvalue = [0.0, 13.073, 0.0, 190.839, 5.688]"] ;
375 -> 377 ;
378 [label="x[299] <= 0.002\ngini = 0.165\nsamples = 79\nvalue = [0.0, 12.851, 0.0, 190.839, 5.688]"] ;
377 -> 378 ;
379 [label="x[316] <= 0.0\ngini = 0.163\nsamples = 78\nvalue = [0.0, 12.63, 0.0, 190.839, 5.688]"] ;
378 -> 379 ;
380 [label="x[172] <= 0.0\ngini = 0.183\nsamples = 73\nvalue = [0.0, 12.187, 0.0, 162.213, 5.688]"] ;
379 -> 380 ;
381 [label="x[316] <= 0.0\ngini = 0.172\nsamples = 67\nvalue = [0.0, 10.857, 0.0, 162.213, 5.688]"] ;
380 -> 381 ;
382 [label="x[172] <= -0.012\ngini = 0.166\nsamples = 64\nvalue = [0.0, 10.192, 0.0, 162.213, 5.688]"] ;
381 -> 382 ;
383 [label="gini = 0.0\nsamples = 2\nvalue = [0.0, 0.0, 0.0, 19.084, 0.0]"] ;
382 -> 383 ;
384 [label="x[51] <= 0.5\ngini = 0.184\nsamples = 62\nvalue = [0.0, 10.192, 0.0, 143.129, 5.688]"] ;
382 -> 384 ;
385 [label="x[284] <= -0.002\ngini = 0.163\nsamples = 52\nvalue = [0.0, 7.977, 0.0, 143.129, 5.688]"] ;
384 -> 385 ;
386 [label="gini = 0.0\nsamples = 1\nvalue = [0.0, 0.222, 0.0, 0.0, 0.0]"] ;
385 -> 386 ;
387 [label="x[71] <= 0.5\ngini = 0.161\nsamples = 51\nvalue = [0.0, 7.755, 0.0, 143.129, 5.688]"] ;
385 -> 387 ;
388 [label="x[208] <= -0.01\ngini = 0.181\nsamples = 49\nvalue = [0.0, 7.755, 0.0, 124.045, 5.688]"] ;
387 -> 388 ;
389 [label="x[208] <= -0.05\ngini = 0.023\nsamples = 3\nvalue = [0.0, 0.222, 0.0, 19.084, 0.0]"] ;
388 -> 389 ;
390 [label="x[189] <= -0.054\ngini = 0.044\nsamples = 2\nvalue = [0.0, 0.222, 0.0, 9.542, 0.0]"] ;
389 -> 390 ;
391 [label="gini = 0.0\nsamples = 1\nvalue = [0.0, 0.0, 0.0, 9.542, 0.0]"] ;
390 -> 391 ;
392 [label="gini = -0.0\nsamples = 1\nvalue = [0.0, 0.222, 0.0, 0.0, 0.0]"] ;
390 -> 392 ;
393 [label="gini = 0.0\nsamples = 1\nvalue = [0.0, 0.0, 0.0, 9.542, 0.0]"] ;
389 -> 393 ;
394 [label="x[68] <= 0.5\ngini = 0.205\nsamples = 46\nvalue = [0.0, 7.533, 0.0, 104.961, 5.688]"] ;
388 -> 394 ;
395 [label="x[165] <= -0.03\ngini = 0.197\nsamples = 43\nvalue = [0.0, 6.869, 0.0, 104.961, 5.688]"] ;
394 -> 395 ;
396 [label="gini = 0.0\nsamples = 1\nvalue = [0.0, 0.0, 0.0, 9.542, 0.0]"] ;
395 -> 396 ;
397 [label="x[284] <= -0.0\ngini = 0.212\nsamples = 42\nvalue = [0.0, 6.869, 0.0, 95.419, 5.688]"] ;
395 -> 397 ;
398 [label="gini = 0.0\nsamples = 1\nvalue = [0.0, 0.0, 0.0, 9.542, 0.0]"] ;
397 -> 398 ;
399 [label="x[163] <= -0.016\ngini = 0.231\nsamples = 41\nvalue = [0.0, 6.869, 0.0, 85.877, 5.688]"] ;
397 -> 399 ;
400 [label="gini = 0.0\nsamples = 2\nvalue = [0.0, 0.443, 0.0, 0.0, 0.0]"] ;
399 -> 400 ;
401 [label="x[170] <= -0.0\ngini = 0.224\nsamples = 39\nvalue = [0.0, 6.426, 0.0, 85.877, 5.688]"] ;
399 -> 401 ;
402 [label="x[195] <= -0.02\ngini = 0.085\nsamples = 6\nvalue = [0.0, 0.886, 0.0, 19.084, 0.0]"] ;
401 -> 402 ;
403 [label="gini = 0.0\nsamples = 1\nvalue = [0.0, 0.222, 0.0, 0.0, 0.0]"] ;
402 -> 403 ;
404 [label="x[184] <= 0.006\ngini = 0.065\nsamples = 5\nvalue = [0.0, 0.665, 0.0, 19.084, 0.0]"] ;
402 -> 404 ;
405 [label="x[170] <= -0.104\ngini = 0.122\nsamples = 4\nvalue = [0.0, 0.665, 0.0, 9.542, 0.0]"] ;
404 -> 405 ;
406 [label="gini = 0.0\nsamples = 1\nvalue = [0.0, 0.0, 0.0, 9.542, 0.0]"] ;
405 -> 406 ;
407 [label="gini = -0.0\nsamples = 3\nvalue = [0.0, 0.665, 0.0, 0.0, 0.0]"] ;
405 -> 407 ;
408 [label="gini = 0.0\nsamples = 1\nvalue = [0.0, 0.0, 0.0, 9.542, 0.0]"] ;
404 -> 408 ;
409 [label="x[197] <= -0.006\ngini = 0.257\nsamples = 33\nvalue = [0.0, 5.539, 0.0, 66.794, 5.688]"] ;
401 -> 409 ;
410 [label="gini = 0.0\nsamples = 1\nvalue = [0.0, 0.0, 0.0, 9.542, 0.0]"] ;
409 -> 410 ;
411 [label="x[281] <= -0.002\ngini = 0.288\nsamples = 32\nvalue = [0.0, 5.539, 0.0, 57.252, 5.688]"] ;
409 -> 411 ;
412 [label="gini = 0.0\nsamples = 1\nvalue = [0.0, 0.0, 0.0, 9.542, 0.0]"] ;
411 -> 412 ;
413 [label="x[53] <= 0.5\ngini = 0.327\nsamples = 31\nvalue = [0.0, 5.539, 0.0, 47.71, 5.688]"] ;
411 -> 413 ;
414 [label="x[323] <= 0.006\ngini = 0.313\nsamples = 28\nvalue = [0.0, 4.875, 0.0, 47.71, 5.688]"] ;
413 -> 414 ;
415 [label="x[317] <= 0.006\ngini = 0.363\nsamples = 27\nvalue = [0.0, 4.875, 0.0, 38.168, 5.688]"] ;
414 -> 415 ;
416 [label="x[316] <= -0.0\ngini = 0.43\nsamples = 26\nvalue = [0.0, 4.875, 0.0, 28.626, 5.688]"] ;
415 -> 416 ;
417 [label="gini = 0.0\nsamples = 1\nvalue = [0.0, 0.0, 0.0, 9.542, 0.0]"] ;
416 -> 417 ;
418 [label="x[206] <= -0.022\ngini = 0.522\nsamples = 25\nvalue = [0.0, 4.875, 0.0, 19.084, 5.688]"] ;
416 -> 418 ;
419 [label="gini = 0.0\nsamples = 1\nvalue = [0.0, 0.0, 0.0, 9.542, 0.0]"] ;
418 -> 419 ;
420 [label="x[85] <= 0.5\ngini = 0.636\nsamples = 24\nvalue = [0.0, 4.875, 0.0, 9.542, 5.688]"] ;
418 -> 420 ;
421 [label="x[74] <= 0.5\ngini = 0.627\nsamples = 21\nvalue = [0.0, 4.21, 0.0, 9.542, 5.688]"] ;
420 -> 421 ;
422 [label="x[196] <= -0.003\ngini = 0.619\nsamples = 19\nvalue = [0.0, 3.767, 0.0, 9.542, 5.688]"] ;
421 -> 422 ;
423 [label="gini = 0.0\nsamples = 2\nvalue = [0.0, 0.443, 0.0, 0.0, 0.0]"] ;
422 -> 423 ;
424 [label="x[177] <= -0.034\ngini = 0.609\nsamples = 17\nvalue = [0.0, 3.324, 0.0, 9.542, 5.688]"] ;
422 -> 424 ;
425 [label="gini = 0.0\nsamples = 1\nvalue = [0.0, 0.222, 0.0, 0.0, 0.0]"] ;
424 -> 425 ;
426 [label="gini = 0.604\nsamples = 16\nvalue = [0.0, 3.102, 0.0, 9.542, 5.688]"] ;
424 -> 426 ;
427 [label="x[195] <= -0.059\ngini = 0.0\nsamples = 2\nvalue = [0.0, 0.443, 0.0, 0.0, 0.0]"] ;
421 -> 427 ;
428 [label="gini = 0.0\nsamples = 1\nvalue = [0.0, 0.222, 0.0, 0.0, 0.0]"] ;
427 -> 428 ;
429 [label="gini = 0.0\nsamples = 1\nvalue = [0.0, 0.222, 0.0, 0.0, 0.0]"] ;
427 -> 429 ;
430 [label="x[206] <= -0.015\ngini = 0.0\nsamples = 3\nvalue = [0.0, 0.665, 0.0, 0.0, 0.0]"] ;
420 -> 430 ;
431 [label="gini = 0.0\nsamples = 1\nvalue = [0.0, 0.222, 0.0, 0.0, 0.0]"] ;
430 -> 431 ;
432 [label="gini = 0.0\nsamples = 2\nvalue = [0.0, 0.443, 0.0, 0.0, 0.0]"] ;
430 -> 432 ;
433 [label="gini = 0.0\nsamples = 1\nvalue = [0.0, 0.0, 0.0, 9.542, 0.0]"] ;
415 -> 433 ;
434 [label="gini = 0.0\nsamples = 1\nvalue = [0.0, 0.0, 0.0, 9.542, 0.0]"] ;
414 -> 434 ;
435 [label="gini = -0.0\nsamples = 3\nvalue = [0.0, 0.665, 0.0, 0.0, 0.0]"] ;
413 -> 435 ;
436 [label="x[49] <= 0.5\ngini = 0.0\nsamples = 3\nvalue = [0.0, 0.665, 0.0, 0.0, 0.0]"] ;
394 -> 436 ;
437 [label="gini = 0.0\nsamples = 2\nvalue = [0.0, 0.443, 0.0, 0.0, 0.0]"] ;
436 -> 437 ;
438 [label="gini = 0.0\nsamples = 1\nvalue = [0.0, 0.222, 0.0, 0.0, 0.0]"] ;
436 -> 438 ;
439 [label="gini = -0.0\nsamples = 2\nvalue = [0.0, 0.0, 0.0, 19.084, 0.0]"] ;
387 -> 439 ;
440 [label="x[172] <= -0.007\ngini = 0.0\nsamples = 10\nvalue = [0.0, 2.216, 0.0, 0.0, 0.0]"] ;
384 -> 440 ;
441 [label="gini = 0.0\nsamples = 1\nvalue = [0.0, 0.222, 0.0, 0.0, 0.0]"] ;
440 -> 441 ;
442 [label="gini = 0.0\nsamples = 9\nvalue = [0.0, 1.994, 0.0, 0.0, 0.0]"] ;
440 -> 442 ;
443 [label="x[316] <= 0.0\ngini = 0.0\nsamples = 3\nvalue = [0.0, 0.665, 0.0, 0.0, 0.0]"] ;
381 -> 443 ;
444 [label="gini = 0.0\nsamples = 1\nvalue = [0.0, 0.222, 0.0, 0.0, 0.0]"] ;
443 -> 444 ;
445 [label="gini = 0.0\nsamples = 2\nvalue = [0.0, 0.443, 0.0, 0.0, 0.0]"] ;
443 -> 445 ;
446 [label="x[193] <= -0.002\ngini = 0.0\nsamples = 6\nvalue = [0.0, 1.329, 0.0, 0.0, 0.0]"] ;
380 -> 446 ;
447 [label="gini = 0.0\nsamples = 1\nvalue = [0.0, 0.222, 0.0, 0.0, 0.0]"] ;
446 -> 447 ;
448 [label="gini = 0.0\nsamples = 5\nvalue = [0.0, 1.108, 0.0, 0.0, 0.0]"] ;
446 -> 448 ;
449 [label="x[195] <= -0.011\ngini = 0.03\nsamples = 5\nvalue = [0.0, 0.443, 0.0, 28.626, 0.0]"] ;
379 -> 449 ;
450 [label="x[316] <= 0.001\ngini = 0.015\nsamples = 4\nvalue = [0.0, 0.222, 0.0, 28.626, 0.0]"] ;
449 -> 450 ;
451 [label="x[316] <= 0.0\ngini = 0.044\nsamples = 2\nvalue = [0.0, 0.222, 0.0, 9.542, 0.0]"] ;
450 -> 451 ;
452 [label="gini = 0.0\nsamples = 1\nvalue = [0.0, 0.0, 0.0, 9.542, 0.0]"] ;
451 -> 452 ;
453 [label="gini = -0.0\nsamples = 1\nvalue = [0.0, 0.222, 0.0, 0.0, 0.0]"] ;
451 -> 453 ;
454 [label="gini = -0.0\nsamples = 2\nvalue = [0.0, 0.0, 0.0, 19.084, 0.0]"] ;
450 -> 454 ;
455 [label="gini = 0.0\nsamples = 1\nvalue = [0.0, 0.222, 0.0, 0.0, 0.0]"] ;
449 -> 455 ;
456 [label="gini = 0.0\nsamples = 1\nvalue = [0.0, 0.222, 0.0, 0.0, 0.0]"] ;
378 -> 456 ;
457 [label="gini = 0.0\nsamples = 1\nvalue = [0.0, 0.222, 0.0, 0.0, 0.0]"] ;
377 -> 457 ;
458 [label="x[173] <= 0.016\ngini = 0.0\nsamples = 2\nvalue = [0.0, 0.443, 0.0, 0.0, 0.0]"] ;
356 -> 458 ;
459 [label="gini = 0.0\nsamples = 1\nvalue = [0.0, 0.222, 0.0, 0.0, 0.0]"] ;
458 -> 459 ;
460 [label="gini = 0.0\nsamples = 1\nvalue = [0.0, 0.222, 0.0, 0.0, 0.0]"] ;
458 -> 460 ;
461 [label="x[173] <= -0.016\ngini = 0.0\nsamples = 2\nvalue = [0.0, 0.443, 0.0, 0.0, 0.0]"] ;
355 -> 461 ;
462 [label="gini = 0.0\nsamples = 1\nvalue = [0.0, 0.222, 0.0, 0.0, 0.0]"] ;
461 -> 462 ;
463 [label="gini = 0.0\nsamples = 1\nvalue = [0.0, 0.222, 0.0, 0.0, 0.0]"] ;
461 -> 463 ;
464 [label="x[189] <= 0.004\ngini = 0.0\nsamples = 2\nvalue = [0.0, 0.443, 0.0, 0.0, 0.0]"] ;
354 -> 464 ;
465 [label="gini = 0.0\nsamples = 1\nvalue = [0.0, 0.222, 0.0, 0.0, 0.0]"] ;
464 -> 465 ;
466 [label="gini = 0.0\nsamples = 1\nvalue = [0.0, 0.222, 0.0, 0.0, 0.0]"] ;
464 -> 466 ;
467 [label="x[208] <= 0.018\ngini = 0.0\nsamples = 2\nvalue = [0.0, 0.443, 0.0, 0.0, 0.0]"] ;
353 -> 467 ;
468 [label="gini = 0.0\nsamples = 1\nvalue = [0.0, 0.222, 0.0, 0.0, 0.0]"] ;
467 -> 468 ;
469 [label="gini = 0.0\nsamples = 1\nvalue = [0.0, 0.222, 0.0, 0.0, 0.0]"] ;
467 -> 469 ;
470 [label="x[206] <= 0.005\ngini = 0.0\nsamples = 2\nvalue = [0.0, 0.443, 0.0, 0.0, 0.0]"] ;
352 -> 470 ;
471 [label="gini = 0.0\nsamples = 1\nvalue = [0.0, 0.222, 0.0, 0.0, 0.0]"] ;
470 -> 471 ;
472 [label="gini = 0.0\nsamples = 1\nvalue = [0.0, 0.222, 0.0, 0.0, 0.0]"] ;
470 -> 472 ;
473 [label="x[196] <= -0.015\ngini = 0.0\nsamples = 2\nvalue = [0.0, 0.443, 0.0, 0.0, 0.0]"] ;
351 -> 473 ;
474 [label="gini = 0.0\nsamples = 1\nvalue = [0.0, 0.222, 0.0, 0.0, 0.0]"] ;
473 -> 474 ;
475 [label="gini = 0.0\nsamples = 1\nvalue = [0.0, 0.222, 0.0, 0.0, 0.0]"] ;
473 -> 475 ;
476 [label="gini = -0.0\nsamples = 3\nvalue = [0.0, 0.665, 0.0, 0.0, 0.0]"] ;
328 -> 476 ;
477 [label="gini = -0.0\nsamples = 3\nvalue = [0.0, 0.665, 0.0, 0.0, 0.0]"] ;
327 -> 477 ;
478 [label="gini = -0.0\nsamples = 3\nvalue = [0.0, 0.665, 0.0, 0.0, 0.0]"] ;
326 -> 478 ;
479 [label="gini = -0.0\nsamples = 3\nvalue = [0.0, 0.665, 0.0, 0.0, 0.0]"] ;
323 -> 479 ;
480 [label="gini = -0.0\nsamples = 3\nvalue = [0.0, 0.665, 0.0, 0.0, 0.0]"] ;
322 -> 480 ;
481 [label="gini = -0.0\nsamples = 4\nvalue = [0.0, 0.886, 0.0, 0.0, 0.0]"] ;
321 -> 481 ;
482 [label="gini = -0.0\nsamples = 5\nvalue = [0.0, 1.108, 0.0, 0.0, 0.0]"] ;
314 -> 482 ;
483 [label="gini = -0.0\nsamples = 5\nvalue = [0.0, 1.108, 0.0, 0.0, 0.0]"] ;
313 -> 483 ;
484 [label="gini = -0.0\nsamples = 8\nvalue = [0.0, 1.773, 0.0, 0.0, 0.0]"] ;
300 -> 484 ;
485 [label="gini = -0.0\nsamples = 8\nvalue = [0.0, 1.773, 0.0, 0.0, 0.0]"] ;
299 -> 485 ;
486 [label="gini = -0.0\nsamples = 9\nvalue = [0.0, 1.994, 0.0, 0.0, 0.0]"] ;
296 -> 486 ;
487 [label="gini = -0.0\nsamples = 18\nvalue = [0.0, 3.988, 0.0, 0.0, 0.0]"] ;
287 -> 487 ;
488 [label="gini = -0.0\nsamples = 11\nvalue = [0.0, 2.437, 0.0, 0.0, 0.0]"] ;
278 -> 488 ;
489 [label="gini = -0.0\nsamples = 12\nvalue = [0.0, 2.659, 0.0, 0.0, 0.0]"] ;
277 -> 489 ;
490 [label="x[185] <= -0.078\ngini = 0.652\nsamples = 42\nvalue = [0.0, 8.863, 0.0, 9.542, 5.688]"] ;
272 -> 490 ;
491 [label="x[185] <= -0.082\ngini = 0.044\nsamples = 2\nvalue = [0.0, 0.222, 0.0, 9.542, 0.0]"] ;
490 -> 491 ;
492 [label="gini = 0.0\nsamples = 1\nvalue = [0.0, 0.222, 0.0, 0.0, 0.0]"] ;
491 -> 492 ;
493 [label="gini = 0.0\nsamples = 1\nvalue = [0.0, 0.0, 0.0, 9.542, 0.0]"] ;
491 -> 493 ;
494 [label="x[185] <= -0.062\ngini = 0.479\nsamples = 40\nvalue = [0.0, 8.641, 0.0, 0.0, 5.688]"] ;
490 -> 494 ;
495 [label="x[185] <= -0.063\ngini = 0.307\nsamples = 7\nvalue = [0.0, 1.329, 0.0, 0.0, 5.688]"] ;
494 -> 495 ;
496 [label="gini = 0.0\nsamples = 6\nvalue = [0.0, 1.329, 0.0, 0.0, 0.0]"] ;
495 -> 496 ;
497 [label="gini = 0.0\nsamples = 1\nvalue = [0.0, 0.0, 0.0, 0.0, 5.688]"] ;
495 -> 497 ;
498 [label="gini = -0.0\nsamples = 33\nvalue = [0.0, 7.312, 0.0, 0.0, 0.0]"] ;
494 -> 498 ;
499 [label="gini = -0.0\nsamples = 15\nvalue = [0.0, 3.324, 0.0, 0.0, 0.0]"] ;
271 -> 499 ;
500 [label="gini = -0.0\nsamples = 16\nvalue = [0.0, 3.545, 0.0, 0.0, 0.0]"] ;
270 -> 500 ;
501 [label="gini = -0.0\nsamples = 16\nvalue = [0.0, 3.545, 0.0, 0.0, 0.0]"] ;
269 -> 501 ;
502 [label="gini = -0.0\nsamples = 16\nvalue = [0.0, 3.545, 0.0, 0.0, 0.0]"] ;
268 -> 502 ;
503 [label="gini = -0.0\nsamples = 17\nvalue = [0.0, 3.767, 0.0, 0.0, 0.0]"] ;
267 -> 503 ;
504 [label="gini = -0.0\nsamples = 21\nvalue = [0.0, 4.653, 0.0, 0.0, 0.0]"] ;
264 -> 504 ;
505 [label="gini = -0.0\nsamples = 22\nvalue = [0.0, 4.875, 0.0, 0.0, 0.0]"] ;
263 -> 505 ;
506 [label="gini = -0.0\nsamples = 22\nvalue = [0.0, 4.875, 0.0, 0.0, 0.0]"] ;
262 -> 506 ;
507 [label="gini = -0.0\nsamples = 28\nvalue = [0.0, 6.204, 0.0, 0.0, 0.0]"] ;
259 -> 507 ;
508 [label="x[193] <= -0.101\ngini = 0.337\nsamples = 8\nvalue = [0.0, 1.551, 0.0, 0.0, 5.688]"] ;
258 -> 508 ;
509 [label="gini = 0.0\nsamples = 1\nvalue = [0.0, 0.0, 0.0, 0.0, 5.688]"] ;
508 -> 509 ;
510 [label="x[193] <= -0.089\ngini = 0.0\nsamples = 7\nvalue = [0.0, 1.551, 0.0, 0.0, 0.0]"] ;
508 -> 510 ;
511 [label="gini = 0.0\nsamples = 1\nvalue = [0.0, 0.222, 0.0, 0.0, 0.0]"] ;
510 -> 511 ;
512 [label="gini = 0.0\nsamples = 6\nvalue = [0.0, 1.329, 0.0, 0.0, 0.0]"] ;
510 -> 512 ;
513 [label="x[207] <= -0.066\ngini = 0.498\nsamples = 24\nvalue = [0.0, 5.096, 0.0, 0.0, 5.688]"] ;
257 -> 513 ;
514 [label="x[207] <= -0.076\ngini = 0.337\nsamples = 8\nvalue = [0.0, 1.551, 0.0, 0.0, 5.688]"] ;
513 -> 514 ;
515 [label="x[312] <= 0.0\ngini = 0.0\nsamples = 7\nvalue = [0.0, 1.551, 0.0, 0.0, 0.0]"] ;
514 -> 515 ;
516 [label="gini = 0.0\nsamples = 5\nvalue = [0.0, 1.108, 0.0, 0.0, 0.0]"] ;
515 -> 516 ;
517 [label="gini = 0.0\nsamples = 2\nvalue = [0.0, 0.443, 0.0, 0.0, 0.0]"] ;
515 -> 517 ;
518 [label="gini = 0.0\nsamples = 1\nvalue = [0.0, 0.0, 0.0, 0.0, 5.688]"] ;
514 -> 518 ;
519 [label="gini = -0.0\nsamples = 16\nvalue = [0.0, 3.545, 0.0, 0.0, 0.0]"] ;
513 -> 519 ;
520 [label="x[177] <= -0.032\ngini = 0.072\nsamples = 2\nvalue = [0.0, 0.222, 0.0, 0.0, 5.688]"] ;
244 -> 520 ;
521 [label="gini = 0.0\nsamples = 1\nvalue = [0.0, 0.222, 0.0, 0.0, 0.0]"] ;
520 -> 521 ;
522 [label="gini = 0.0\nsamples = 1\nvalue = [0.0, 0.0, 0.0, 0.0, 5.688]"] ;
520 -> 522 ;
523 [label="gini = -0.0\nsamples = 42\nvalue = [0.0, 9.306, 0.0, 0.0, 0.0]"] ;
235 -> 523 ;
524 [label="gini = -0.0\nsamples = 1\nvalue = [0.0, 0.0, 0.0, 0.0, 5.688]"] ;
234 -> 524 ;
525 [label="gini = -0.0\nsamples = 53\nvalue = [0.0, 11.743, 0.0, 0.0, 0.0]"] ;
231 -> 525 ;
526 [label="x[84] <= 0.5\ngini = 0.182\nsamples = 6\nvalue = [0.0, 1.108, 9.86, 0.0, 0.0]"] ;
196 -> 526 ;
527 [label="gini = -0.0\nsamples = 5\nvalue = [0.0, 1.108, 0.0, 0.0, 0.0]"] ;
526 -> 527 ;
528 [label="gini = 0.0\nsamples = 1\nvalue = [0.0, 0.0, 9.86, 0.0, 0.0]"] ;
526 -> 528 ;
529 [label="gini = 0.0\nsamples = 1\nvalue = [0.0, 0.0, 9.86, 0.0, 0.0]"] ;
191 -> 529 ;
530 [label="x[157] <= -0.062\ngini = 0.5\nsamples = 27\nvalue = [28.626, 5.096, 0.0, 9.542, 0.0]"] ;
146 -> 530 ;
531 [label="x[157] <= -0.137\ngini = 0.356\nsamples = 14\nvalue = [0.0, 2.88, 0.0, 9.542, 0.0]"] ;
530 -> 531 ;
532 [label="gini = 0.0\nsamples = 1\nvalue = [0.0, 0.0, 0.0, 9.542, 0.0]"] ;
531 -> 532 ;
533 [label="gini = -0.0\nsamples = 13\nvalue = [0.0, 2.88, 0.0, 0.0, 0.0]"] ;
531 -> 533 ;
534 [label="x[278] <= -0.0\ngini = 0.133\nsamples = 13\nvalue = [28.626, 2.216, 0.0, 0.0, 0.0]"] ;
530 -> 534 ;
535 [label="gini = 0.0\nsamples = 5\nvalue = [0.0, 1.108, 0.0, 0.0, 0.0]"] ;
534 -> 535 ;
536 [label="x[167] <= -0.031\ngini = 0.072\nsamples = 8\nvalue = [28.626, 1.108, 0.0, 0.0, 0.0]"] ;
534 -> 536 ;
537 [label="gini = 0.0\nsamples = 1\nvalue = [0.0, 0.222, 0.0, 0.0, 0.0]"] ;
536 -> 537 ;
538 [label="x[170] <= -0.028\ngini = 0.058\nsamples = 7\nvalue = [28.626, 0.886, 0.0, 0.0, 0.0]"] ;
536 -> 538 ;
539 [label="gini = 0.0\nsamples = 1\nvalue = [0.0, 0.222, 0.0, 0.0, 0.0]"] ;
538 -> 539 ;
540 [label="x[157] <= -0.046\ngini = 0.044\nsamples = 6\nvalue = [28.626, 0.665, 0.0, 0.0, 0.0]"] ;
538 -> 540 ;
541 [label="gini = 0.0\nsamples = 2\nvalue = [19.084, 0.0, 0.0, 0.0, 0.0]"] ;
540 -> 541 ;
542 [label="x[157] <= 0.001\ngini = 0.122\nsamples = 4\nvalue = [9.542, 0.665, 0.0, 0.0, 0.0]"] ;
540 -> 542 ;
543 [label="gini = -0.0\nsamples = 3\nvalue = [0.0, 0.665, 0.0, 0.0, 0.0]"] ;
542 -> 543 ;
544 [label="gini = 0.0\nsamples = 1\nvalue = [9.542, 0.0, 0.0, 0.0, 0.0]"] ;
542 -> 544 ;
545 [label="x[195] <= -0.06\ngini = 0.166\nsamples = 16\nvalue = [28.626, 2.88, 0.0, 0.0, 0.0]"] ;
115 -> 545 ;
546 [label="x[179] <= -0.089\ngini = 0.044\nsamples = 6\nvalue = [28.626, 0.665, 0.0, 0.0, 0.0]"] ;
545 -> 546 ;
547 [label="gini = 0.0\nsamples = 2\nvalue = [0.0, 0.443, 0.0, 0.0, 0.0]"] ;
546 -> 547 ;
548 [label="x[178] <= -0.055\ngini = 0.015\nsamples = 4\nvalue = [28.626, 0.222, 0.0, 0.0, 0.0]"] ;
546 -> 548 ;
549 [label="gini = 0.0\nsamples = 1\nvalue = [0.0, 0.222, 0.0, 0.0, 0.0]"] ;
548 -> 549 ;
550 [label="gini = -0.0\nsamples = 3\nvalue = [28.626, 0.0, 0.0, 0.0, 0.0]"] ;
548 -> 550 ;
551 [label="x[299] <= 0.017\ngini = 0.0\nsamples = 10\nvalue = [0.0, 2.216, 0.0, 0.0, 0.0]"] ;
545 -> 551 ;
552 [label="gini = 0.0\nsamples = 9\nvalue = [0.0, 1.994, 0.0, 0.0, 0.0]"] ;
551 -> 552 ;
553 [label="gini = 0.0\nsamples = 1\nvalue = [0.0, 0.222, 0.0, 0.0, 0.0]"] ;
551 -> 553 ;
554 [label="x[192] <= -0.053\ngini = 0.03\nsamples = 5\nvalue = [28.626, 0.443, 0.0, 0.0, 0.0]"] ;
114 -> 554 ;
555 [label="gini = 0.0\nsamples = 1\nvalue = [0.0, 0.222, 0.0, 0.0, 0.0]"] ;
554 -> 555 ;
556 [label="x[179] <= -0.031\ngini = 0.015\nsamples = 4\nvalue = [28.626, 0.222, 0.0, 0.0, 0.0]"] ;
554 -> 556 ;
557 [label="gini = 0.0\nsamples = 1\nvalue = [0.0, 0.222, 0.0, 0.0, 0.0]"] ;
556 -> 557 ;
558 [label="gini = -0.0\nsamples = 3\nvalue = [28.626, 0.0, 0.0, 0.0, 0.0]"] ;
556 -> 558 ;
559 [label="x[194] <= -0.003\ngini = 0.036\nsamples = 9\nvalue = [47.71, 0.886, 0.0, 0.0, 0.0]"] ;
65 -> 559 ;
560 [label="gini = 0.0\nsamples = 2\nvalue = [0.0, 0.443, 0.0, 0.0, 0.0]"] ;
559 -> 560 ;
561 [label="x[290] <= 0.029\ngini = 0.018\nsamples = 7\nvalue = [47.71, 0.443, 0.0, 0.0, 0.0]"] ;
559 -> 561 ;
562 [label="x[318] <= 0.024\ngini = 0.009\nsamples = 6\nvalue = [47.71, 0.222, 0.0, 0.0, 0.0]"] ;
561 -> 562 ;
563 [label="gini = 0.0\nsamples = 5\nvalue = [47.71, 0.0, 0.0, 0.0, 0.0]"] ;
562 -> 563 ;
564 [label="gini = -0.0\nsamples = 1\nvalue = [0.0, 0.222, 0.0, 0.0, 0.0]"] ;
562 -> 564 ;
565 [label="gini = -0.0\nsamples = 1\nvalue = [0.0, 0.222, 0.0, 0.0, 0.0]"] ;
561 -> 565 ;
566 [label="x[69] <= 0.5\ngini = 0.241\nsamples = 60\nvalue = [104.961, 10.636, 0.0, 0.0, 5.688]"] ;
0 -> 566 [labeldistance=2.5, labelangle=-45, headlabel="False"] ;
567 [label="x[289] <= 0.016\ngini = 0.161\nsamples = 57\nvalue = [104.961, 10.192, 0.0, 0.0, 0.0]"] ;
566 -> 567 ;
568 [label="x[168] <= -0.046\ngini = 0.444\nsamples = 45\nvalue = [19.084, 9.528, 0.0, 0.0, 0.0]"] ;
567 -> 568 ;
569 [label="gini = -0.0\nsamples = 40\nvalue = [0.0, 8.863, 0.0, 0.0, 0.0]"] ;
568 -> 569 ;
570 [label="x[63] <= 0.5\ngini = 0.065\nsamples = 5\nvalue = [19.084, 0.665, 0.0, 0.0, 0.0]"] ;
568 -> 570 ;
571 [label="x[159] <= -0.037\ngini = 0.023\nsamples = 3\nvalue = [19.084, 0.222, 0.0, 0.0, 0.0]"] ;
570 -> 571 ;
572 [label="gini = 0.0\nsamples = 1\nvalue = [0.0, 0.222, 0.0, 0.0, 0.0]"] ;
571 -> 572 ;
573 [label="gini = 0.0\nsamples = 2\nvalue = [19.084, 0.0, 0.0, 0.0, 0.0]"] ;
571 -> 573 ;
574 [label="x[72] <= 0.5\ngini = 0.0\nsamples = 2\nvalue = [0.0, 0.443, 0.0, 0.0, 0.0]"] ;
570 -> 574 ;
575 [label="gini = 0.0\nsamples = 1\nvalue = [0.0, 0.222, 0.0, 0.0, 0.0]"] ;
574 -> 575 ;
576 [label="gini = 0.0\nsamples = 1\nvalue = [0.0, 0.222, 0.0, 0.0, 0.0]"] ;
574 -> 576 ;
577 [label="x[177] <= -0.045\ngini = 0.015\nsamples = 12\nvalue = [85.877, 0.665, 0.0, 0.0, 0.0]"] ;
567 -> 577 ;
578 [label="gini = 0.0\nsamples = 1\nvalue = [0.0, 0.222, 0.0, 0.0, 0.0]"] ;
577 -> 578 ;
579 [label="x[169] <= -0.034\ngini = 0.01\nsamples = 11\nvalue = [85.877, 0.443, 0.0, 0.0, 0.0]"] ;
577 -> 579 ;
580 [label="gini = 0.0\nsamples = 1\nvalue = [0.0, 0.222, 0.0, 0.0, 0.0]"] ;
579 -> 580 ;
581 [label="x[178] <= -0.039\ngini = 0.005\nsamples = 10\nvalue = [85.877, 0.222, 0.0, 0.0, 0.0]"] ;
579 -> 581 ;
582 [label="gini = 0.0\nsamples = 1\nvalue = [0.0, 0.222, 0.0, 0.0, 0.0]"] ;
581 -> 582 ;
583 [label="gini = 0.0\nsamples = 9\nvalue = [85.877, 0.0, 0.0, 0.0, 0.0]"] ;
581 -> 583 ;
584 [label="x[168] <= -0.033\ngini = 0.134\nsamples = 3\nvalue = [0.0, 0.443, 0.0, 0.0, 5.688]"] ;
566 -> 584 ;
585 [label="gini = 0.0\nsamples = 2\nvalue = [0.0, 0.443, 0.0, 0.0, 0.0]"] ;
584 -> 585 ;
586 [label="gini = 0.0\nsamples = 1\nvalue = [0.0, 0.0, 0.0, 0.0, 5.688]"] ;
584 -> 586 ;
}
